SVM-light Version V6.02
2 # kernel type
3 # kernel parameter -d 
1 # kernel parameter -g 
1 # kernel parameter -s 
1 # kernel parameter -r 
empty# kernel parameter -u 
104 # highest feature index 
77 # number of training documents 
53 # number of support vectors plus 1 
0.51825337 # threshold b, each following line is a SV (starting with alpha*y)
-0.19787244119765418082224073259567 1:0.26666701 2:0.027732 3:0.033524498 4:0.028067401 5:0.0172532 6:0.066762403 7:0.16292401 8:0.249006 9:0.26023999 10:0.29020599 11:0.216282 12:0.185146 13:0.269851 14:0.43287301 15:0.45612499 16:0.44464701 17:0.66103202 18:0.90131199 19:0.89295399 20:0.834925 21:0.842713 22:0.85000598 23:0.87988901 24:0.82257199 25:0.719118 26:0.66057903 27:0.577483 28:0.54385 29:0.44004899 30:0.37734199 31:0.275913 32:0.24078199 33:0.25789699 34:0.231231 35:0.125623 36:0.0691109 37:0.051029101 38:0.098330699 39:0.146516 40:0.129695 41:0.072535098 42:0.025528399 43:0.0420761 44:0.141601 45:0.21673299 46:0.20542499 47:0.198228 48:0.178324 49:0.107916 50:0.052575599 51:0.0859854 52:0.18911 53:0.30935001 54:0.34145299 55:0.29201499 56:0.30548599 57:0.36604199 58:0.34252599 59:0.44374001 60:0.442543 61:0.498689 62:0.54968399 63:0.481812 64:0.34028801 65:0.220863 66:0.166052 67:0.067644499 68:0.042304199 69:0.049883399 70:0.16983099 71:0.217996 72:0.23062301 73:0.22557899 74:0.151573 75:0.139195 76:0.226559 77:0.24630199 78:0.128399 79:0.230867 80:0.20460001 81:0.205054 82:0.153944 83:0.183709 84:0.120304 85:0.102243 86:0.109244 87:0.073848598 88:0.086314797 89:0.103581 90:0.075023197 91:0.078379303 92:0.085520498 93:0.10049 94:0.082336597 95:0.071448803 96:0.035994101 97:0.060890101 98:0.041351099 99:0.0301877 100:0.0649729 101:0.119995 102:0.141718 103:0.159136 104:0.155175 #
-0.16642690510912699908274703375355 1:0.15000001 2:0.12666599 3:0.088578299 4:0.039524 5:0.042109601 6:0.153366 7:0.32795599 8:0.39627901 9:0.34688199 10:0.47030601 11:0.45621401 12:0.39924499 13:0.39720401 14:0.410025 15:0.31066701 16:0.320737 17:0.434903 18:0.64515603 19:0.73801303 20:0.77938002 21:0.836236 22:0.858684 23:0.819089 24:0.75337499 25:0.678819 26:0.638888 27:0.64846897 28:0.65761697 29:0.70768303 30:0.772497 31:0.79531699 32:0.78169203 33:0.71079803 34:0.56752402 35:0.390903 36:0.295894 37:0.246288 38:0.207552 39:0.27503201 40:0.338101 41:0.363105 42:0.332569 43:0.35438699 44:0.34624401 45:0.28551501 46:0.20791499 47:0.192488 48:0.18708 49:0.17277101 50:0.120428 51:0.118025 52:0.14306401 53:0.151638 54:0.143187 55:0.088605098 56:0.070124 57:0.019685799 58:0.0478503 59:0.094056398 60:0.140531 61:0.17208099 62:0.232242 63:0.23771501 64:0.208123 65:0.19952901 66:0.236642 67:0.22653399 68:0.27239501 69:0.164417 70:0.232026 71:0.197276 72:0.176458 73:0.198191 74:0.14173099 75:0.126122 76:0.20004 77:0.196961 78:0.11576 79:0.174247 80:0.0974833 81:0.080573499 82:0.031121301 83:0.0353502 84:0.026846001 85:0.0606612 86:0.103945 87:0.100752 88:0.12328 89:0.123871 90:0.124287 91:0.176046 92:0.219366 93:0.31263399 94:0.29645401 95:0.49640301 96:0.238418 97:0.19826201 98:0.136003 99:0.152115 100:0.13847999 101:0.16178 102:0.169973 103:0.158813 104:0.16983999 #
-0.80482589441339091873572897384292 1:0.26666701 2:0.0352089 3:0.0051969299 4:0.0327917 5:0.052979901 6:0.127526 7:0.26237401 8:0.35124099 9:0.36220801 10:0.43949899 11:0.48071599 12:0.450883 13:0.40954 14:0.51021802 15:0.53558803 16:0.595303 17:0.73328102 18:0.86350298 19:0.771267 20:0.74341398 21:0.719621 22:0.584692 23:0.48102999 24:0.38689101 25:0.32798499 26:0.27278501 27:0.25017801 28:0.20765799 29:0.122361 30:0.0588797 31:0.087752499 32:0.087311402 33:0.086497001 34:0.016209099 35:0.0175108 36:0.099241301 37:0.103946 38:0.096825302 39:0.124894 40:0.142984 41:0.157499 42:0.110144 43:0.148201 44:0.192532 45:0.172857 46:0.109324 47:0.0978745 48:0.121004 49:0.092908204 50:0.085149802 51:0.086583003 52:0.0036204499 53:0.100365 54:0.151252 55:0.108974 56:0.116371 57:0.153212 58:0.107276 59:0.15406699 60:0.160621 61:0.121783 62:0.053708799 63:0.105153 64:0.16313601 65:0.190911 66:0.214865 67:0.173822 68:0.239264 69:0.154998 70:0.208011 71:0.19498301 72:0.16596501 73:0.14187001 74:0.090780303 75:0.073983297 76:0.0627442 77:0.0158948 78:0.0085273199 79:0.050077699 80:0.065757699 81:0.0615757 82:0.064072996 83:0.081546798 84:0.041910902 85:0.0149963 87:0.0056258598 88:0.030325299 89:0.039266199 90:0.040105801 91:0.068620697 92:0.057999 93:0.072011203 94:0.0823026 95:0.17089 96:0.085855097 97:0.059291899 98:0.031578001 99:0.030404201 100:0.044224601 101:0.084096998 102:0.071313702 103:0.0502357 104:0.0309812 #
-0.066347347828742533892842914156063 1:0.26666701 2:0.031344701 3:0.018928001 4:0.0131651 5:0.0597069 6:0.142 7:0.30047601 8:0.430134 9:0.46004799 10:0.494663 11:0.56899101 12:0.51848799 13:0.370381 14:0.41798401 15:0.55285603 16:0.66577399 17:0.72477698 18:0.67368901 19:0.53774798 20:0.60622501 21:0.61014903 22:0.45683599 23:0.39496601 24:0.33587599 25:0.29847899 26:0.33433801 27:0.360268 28:0.349949 29:0.358408 30:0.41005501 31:0.36309001 32:0.31655899 33:0.39221099 34:0.376252 35:0.325068 36:0.36351201 37:0.41239199 38:0.362535 39:0.39281601 40:0.280518 41:0.114979 42:0.087362401 43:0.104081 44:0.072236203 45:0.0549087 46:0.021233 47:0.055083301 48:0.086952299 49:0.0556245 50:0.065162897 51:0.041725799 52:0.120032 53:0.23988201 54:0.238612 55:0.239409 56:0.303175 57:0.353147 58:0.30236399 59:0.38997599 60:0.31829599 61:0.22879 62:0.25538501 63:0.286201 64:0.190355 65:0.069492899 66:0.078773104 67:0.123547 68:0.15553001 69:0.165272 70:0.31366199 71:0.31068599 72:0.244168 73:0.184203 74:0.18370301 75:0.256623 76:0.467915 77:0.53970802 78:0.27502701 79:0.398018 80:0.31776801 81:0.31218001 82:0.204524 83:0.174475 84:0.141706 85:0.172975 86:0.225503 87:0.16041701 88:0.105556 89:0.064043 90:0.034347501 91:0.018788099 92:0.0434459 93:0.058522701 94:0.069633901 95:0.200289 96:0.108556 97:0.097934604 98:0.076099798 99:0.0936189 100:0.103624 101:0.126726 102:0.122404 103:0.086985201 104:0.047451802 #
-0.25751290004763560670397737339954 1:0.26666701 2:0.066879101 3:0.045941699 4:0.019321101 5:0.0755293 6:0.22218101 7:0.40199399 8:0.492304 9:0.35439301 10:0.22751801 11:0.29365 12:0.311059 13:0.375817 14:0.65156001 15:0.714073 16:0.69024599 17:0.57037199 18:0.45481101 19:0.50053698 20:0.54456002 21:0.45081201 22:0.37961099 23:0.423592 24:0.383589 25:0.44117099 26:0.471838 27:0.48256701 28:0.55219001 29:0.50664002 30:0.38673401 31:0.40455899 32:0.54490399 33:0.45716301 34:0.27944401 35:0.32264099 36:0.25051901 37:0.211523 38:0.214432 39:0.17504101 40:0.13200501 41:0.14044701 42:0.067749403 43:0.068583697 44:0.13946301 45:0.243844 46:0.19885799 47:0.22396301 48:0.162628 49:0.23581401 50:0.303801 51:0.38455701 52:0.41598499 53:0.57337201 54:0.57448298 55:0.431676 56:0.49059299 57:0.463485 58:0.29402301 59:0.34602499 60:0.25881401 61:0.195298 62:0.32321101 63:0.28167 64:0.104304 65:0.145694 66:0.280083 67:0.31563899 68:0.48576 69:0.36818999 70:0.48892799 71:0.53143603 72:0.47307801 73:0.39303899 74:0.257669 75:0.230783 76:0.33856201 77:0.35244501 78:0.22063699 79:0.347911 80:0.20446 81:0.157144 82:0.078446701 83:0.15284 84:0.13578799 85:0.137118 86:0.140145 87:0.119877 88:0.16404299 89:0.20275401 90:0.176851 91:0.204961 92:0.210107 93:0.159245 94:0.110707 95:0.14412899 96:0.050871398 97:0.0934771 98:0.0526223 99:0.0401241 100:0.108914 101:0.130466 102:0.17127 103:0.188737 104:0.19599 #
-0.027183412085185688911170842629872 1:0.15000001 2:0.0020667501 3:0.0290929 4:0.037267301 5:0.0497321 6:0.0996176 7:0.184929 8:0.25818801 9:0.3136 10:0.396718 11:0.380227 12:0.29076099 13:0.29836899 14:0.448055 15:0.460886 16:0.49693999 17:0.60396999 18:0.72332001 19:0.726439 20:0.81443101 21:0.91454798 22:0.87972403 23:0.82220298 24:0.75158203 25:0.69587898 26:0.65084201 27:0.62791401 28:0.59663397 29:0.52497298 30:0.445746 31:0.35984799 32:0.34823501 33:0.323562 34:0.21192899 35:0.113589 36:0.105207 37:0.096367598 38:0.112202 39:0.14409199 40:0.121481 41:0.082989298 42:0.081060797 43:0.103694 44:0.114402 45:0.099363603 46:0.073382497 47:0.073627599 48:0.066887498 49:0.061736699 50:0.094415903 51:0.108953 52:0.117367 53:0.207955 54:0.25117701 55:0.19996899 56:0.168409 57:0.201636 58:0.18918701 59:0.19997101 60:0.130068 61:0.066007897 62:0.044614501 63:0.086512402 64:0.083929598 65:0.044789501 66:0.032707401 67:0.079691097 68:0.106651 69:0.038293902 70:0.069957003 71:0.097938597 72:0.116042 73:0.14043701 74:0.107955 75:0.082266197 76:0.110539 77:0.125779 78:0.051548 79:0.034124799 80:0.030705599 81:0.040417701 82:0.032658499 83:0.050246902 84:0.043117899 85:0.051784799 86:0.088230804 87:0.068179697 88:0.0458497 89:0.0460281 90:0.035606701 91:0.0467925 92:0.0530315 93:0.052943401 94:0.040541898 95:0.116746 96:0.062166698 97:0.046395302 98:0.028276401 99:0.040309399 100:0.040708002 101:0.0106329 102:0.0221071 103:0.0247867 104:0.0086867604 #
0.72243230496053001399303639118443 1:0.64999998 2:0.123261 3:0.066451199 4:0.034807201 5:0.067038603 6:0.316935 7:0.53082299 8:0.65641701 9:0.69617897 10:0.51643598 11:0.117917 12:0.232333 13:0.55495203 14:0.71716499 15:0.61695999 16:0.54024899 17:0.418354 18:0.23293699 19:0.30671799 20:0.50334102 21:0.54026198 22:0.33574599 23:0.20612501 24:0.28753299 25:0.33255699 26:0.290317 27:0.21344601 28:0.18912999 29:0.24279501 30:0.28093901 31:0.191761 32:0.203968 33:0.37033799 34:0.38745201 35:0.27581 36:0.12807199 37:0.031054299 38:0.105551 39:0.15042201 40:0.105653 41:0.062671602 42:0.075334497 43:0.091826402 44:0.044373699 45:0.045468301 46:0.094321497 47:0.0954464 48:0.102966 49:0.151444 50:0.15466 51:0.150212 52:0.112425 53:0.13133299 54:0.173592 55:0.14536799 56:0.118925 57:0.139928 58:0.126545 59:0.138126 60:0.088896297 61:0.067872301 62:0.102485 63:0.120912 64:0.115746 65:0.107264 66:0.130147 67:0.123131 68:0.14151099 69:0.116173 70:0.172069 71:0.131631 72:0.099293098 73:0.081065401 74:0.045467801 75:0.0221113 76:0.068403199 77:0.110849 78:0.072251901 79:0.107836 80:0.096761301 81:0.098971799 82:0.061582901 83:0.042848501 84:0.024997599 85:0.049830899 86:0.109191 87:0.094316602 88:0.084609397 89:0.057624198 90:0.034507699 91:0.057317201 92:0.059975799 93:0.063301302 94:0.0090313796 95:0.036568601 96:0.037070502 97:0.032747 98:0.021113399 99:0.0137827 100:0.042481702 101:0.0578169 102:0.0282862 103:0.029790301 104:0.067887798 #
0.44342407787653331796562383715354 1:0.57499999 2:0.078098796 3:0.055184599 4:0.056070399 5:0.0553375 6:0.283557 7:0.542579 8:0.71045798 9:0.81940502 10:0.89302599 11:0.76842999 12:0.61135399 13:0.502325 14:0.42535499 15:0.29319799 16:0.220309 17:0.227237 18:0.317283 19:0.36068299 20:0.38774499 21:0.407361 22:0.31919599 23:0.254439 24:0.194537 25:0.171435 26:0.180014 27:0.18576001 28:0.17422201 29:0.15201101 30:0.18098301 31:0.207195 32:0.228135 33:0.213856 34:0.14269499 35:0.062798202 36:0.038237698 37:0.035497401 38:0.0310211 39:0.017151199 40:0.027822301 41:0.066303603 42:0.083020702 43:0.094172299 44:0.099793397 45:0.0502523 46:0.0284275 47:0.0622238 48:0.098410703 49:0.085720301 50:0.0206552 51:0.0376486 52:0.086442001 53:0.122589 54:0.0891186 55:0.0671276 56:0.039731 57:0.016222 58:0.0224951 59:0.046954799 60:0.040118702 61:0.028486701 62:0.021271899 63:0.0495396 64:0.0662864 65:0.057962999 66:0.073876597 67:0.0558814 68:0.078122199 69:0.056420501 70:0.041009702 71:0.0156232 72:0.00300197 73:0.00033535599 74:0.0066299899 75:0.0094801104 76:0.05652 77:0.066617303 78:0.063786097 79:0.081723303 80:0.059412599 81:0.030461701 82:0.0199227 83:0.0110395 85:0.0138625 86:0.0233768 87:0.0396224 88:0.0397586 89:0.040438302 90:0.0319997 91:0.0222892 92:0.0202797 93:0.00469073 94:0.0221493 95:0.066142902 96:0.036702801 97:0.0042183702 98:0.00956285 99:0.043230198 100:0.062042098 101:0.108888 102:0.125313 103:0.102781 104:0.072566196 #
0.16383024573519391897669095214951 1:0.57499999 2:0.073230602 3:0.022483399 4:0.0217172 5:0.097760499 6:0.30299699 7:0.48229 8:0.614178 9:0.61623299 10:0.41422701 11:0.0156573 12:0.30444801 13:0.58137 14:0.77192003 15:0.70250499 16:0.63177902 17:0.56918502 18:0.45028201 19:0.26072299 20:0.210389 21:0.25027901 22:0.176319 23:0.088914298 24:0.033635098 25:0.058129098 26:0.083594002 27:0.083211496 28:0.087361701 29:0.088546596 30:0.097380303 31:0.046367001 32:0.027876601 33:0.14165901 34:0.18526299 35:0.139566 36:0.070034496 37:0.082009196 38:0.109021 39:0.135894 40:0.117067 41:0.13382199 42:0.102405 43:0.063759498 44:0.00132709 45:0.0145518 46:0.0307271 47:0.0156336 48:0.0192632 49:0.047235701 50:0.032393798 51:0.022375699 52:0.0220796 53:0.033932801 54:0.017872499 55:0.023011301 56:0.0468993 57:0.042862501 58:0.052211899 59:0.086070202 60:0.103231 61:0.10393 62:0.10663 63:0.087485403 64:0.065147102 65:0.051405001 66:0.0401388 67:0.028720699 68:0.068007499 69:0.056806099 70:0.068261199 71:0.00120127 72:0.032632001 73:0.056754898 74:0.0197882 75:0.0293731 76:0.095206603 77:0.12756801 78:0.063151002 79:0.110821 80:0.084220499 81:0.064827502 82:0.047956001 83:0.086976402 84:0.078850798 85:0.062821001 86:0.045119699 87:0.043292001 88:0.041453902 89:0.02846 90:0.0164336 91:0.050397601 92:0.071930401 93:0.065483801 94:0.040874299 95:0.13291401 96:0.073636502 97:0.0658409 98:0.034993298 99:0.032470901 100:0.045247499 101:0.036600199 102:0.024052899 103:0.0088034896 104:0.019805999 #
0.047894957387200759457712706534949 1:0.81666702 2:0.0242844 3:0.033643398 4:0.033893298 5:0.102945 6:0.29881701 7:0.39843899 8:0.37915701 9:0.28400299 10:0.073107697 11:0.384767 12:0.62884301 13:0.81108397 14:0.83881098 15:0.65014601 16:0.514319 17:0.402917 18:0.39381799 19:0.428875 20:0.44651601 21:0.39159399 22:0.224811 23:0.21605299 24:0.24875399 25:0.25648999 26:0.29325101 27:0.33754101 28:0.386343 29:0.35108 30:0.26350501 31:0.23086999 32:0.372159 33:0.45786899 34:0.31192499 35:0.123389 36:0.103308 37:0.13263901 38:0.110561 39:0.082409501 40:0.069496199 41:0.093730502 42:0.0507439 43:0.047833901 44:0.0900824 45:0.076471597 46:0.064040601 47:0.069165297 48:0.082210802 49:0.086693197 50:0.046154499 51:0.049672302 52:0.067860499 53:0.056293499 54:0.033721302 55:0.00342238 56:0.0083601596 57:0.0129366 58:0.032933701 59:0.0565258 60:0.030011199 61:0.0029124699 62:0.050733201 63:0.082469098 64:0.077340402 65:0.0476574 66:0.0121058 67:0.030254301 68:0.086088501 69:0.046766799 70:0.077417098 71:0.0573681 72:0.0390324 73:0.022911601 74:0.0080809798 75:0.0106585 76:0.031417999 77:0.0183949 78:0.0220709 79:0.042954501 80:0.0341397 81:0.0566351 82:0.041869301 83:0.087089203 84:0.054602601 85:0.058227401 86:0.076285399 87:0.101593 88:0.124137 89:0.108163 90:0.076720402 91:0.064535402 92:0.069243602 93:0.063771099 94:0.0477833 95:0.15364601 96:0.072515801 97:0.0531528 98:0.061387599 99:0.092075601 100:0.120273 101:0.114722 102:0.100357 103:0.14133 104:0.13337301 #
-0.6087246850212264526192029734375 1:0.55000001 2:0.0671973 3:0.028937601 4:0.0148734 5:0.071965799 6:0.228425 7:0.401227 8:0.46225101 9:0.45396399 10:0.57656997 11:0.542714 12:0.242993 13:0.0509969 14:0.57101899 15:0.74283397 16:0.75479603 17:0.62822002 18:0.37538901 19:0.28526399 20:0.45659301 21:0.464845 22:0.37113699 23:0.34324101 24:0.37643501 25:0.42506501 26:0.399627 27:0.361168 28:0.37579301 29:0.39704201 30:0.359249 31:0.28076801 32:0.285153 33:0.272553 34:0.309374 35:0.31569001 36:0.30226001 37:0.29734999 38:0.220348 39:0.15304101 40:0.134822 41:0.223461 42:0.203935 43:0.165646 44:0.158834 45:0.155762 46:0.146354 47:0.18234 48:0.16489799 49:0.116692 50:0.163867 51:0.20547099 52:0.29127201 53:0.39904001 54:0.309221 55:0.226679 56:0.26953399 57:0.27610901 58:0.192394 59:0.209934 60:0.14562801 61:0.128608 62:0.19532999 63:0.19148199 64:0.109785 65:0.0311573 66:0.051672898 67:0.061051302 68:0.00689869 69:0.076862901 70:0.152171 71:0.146458 72:0.130843 73:0.094708398 74:0.074792698 75:0.069266997 76:0.065520301 77:0.120257 78:0.058414999 79:0.100007 80:0.132021 81:0.12645 82:0.081583299 83:0.102534 84:0.082114197 85:0.0917373 86:0.090788603 87:0.035924502 88:0.077435099 89:0.081114501 90:0.050872698 91:0.074265197 92:0.078927703 93:0.109237 94:0.121648 95:0.212624 96:0.11204 97:0.091150902 98:0.065865301 99:0.094228603 100:0.080458 101:0.0453774 102:0.059815399 103:0.024074599 104:0.026954999 #
-0.50717835687093315577556040807394 1:0.26666701 2:0.194084 3:0.205635 4:0.38251799 5:0.57223201 6:1 7:1 8:0.900033 9:0.52068001 10:0.27416199 11:0.079911798 13:0.0976758 14:0.142646 15:0.120473 16:0.14017899 17:0.144651 18:0.141528 19:0.035165899 20:0.094472602 21:0.20037299 22:0.303482 23:0.33828399 24:0.25280601 25:0.177635 26:0.092930503 27:0.10881 28:0.177276 29:0.22089501 30:0.2317 31:0.205579 32:0.18995599 33:0.244442 34:0.175725 35:0.20616999 36:0.17495701 37:0.154358 38:0.20841201 39:0.24831 40:0.26297501 41:0.181449 42:0.088027403 43:0.045790799 44:0.049825002 45:0.098948501 46:0.070509702 47:0.074382797 48:0.14629699 49:0.17669401 50:0.22627801 51:0.229076 52:0.239015 53:0.222379 54:0.145005 55:0.156662 56:0.155439 57:0.143888 58:0.070022501 59:0.061656199 60:0.102555 61:0.20621499 62:0.29575199 63:0.33529299 64:0.260342 65:0.17881501 66:0.17513201 67:0.15297 68:0.28021199 69:0.26430601 70:0.30795801 71:0.19555999 72:0.104732 73:0.080259196 74:0.10329 75:0.129171 76:0.229176 77:0.38117799 78:0.25581199 79:0.43601701 80:0.373898 81:0.349114 82:0.29375699 83:0.376497 84:0.22683001 85:0.21246199 86:0.234752 87:0.15548401 88:0.185298 89:0.18525299 90:0.15775099 91:0.224224 92:0.230767 93:0.305197 94:0.32460201 95:0.52067298 96:0.295856 97:0.249282 98:0.150387 99:0.18192901 100:0.13582399 101:0.136966 102:0.16886599 103:0.12893599 104:0.119139 #
-0.48211470305813586278986804245505 2:0.0121027 3:0.75497299 4:1 5:1 6:0.65665603 7:0.46867901 8:0.55695498 9:0.407518 10:0.49627799 11:0.29120901 12:0.077063203 14:0.0802022 15:0.021651501 16:0.066760302 17:0.19785701 18:0.46353501 19:0.31461799 20:0.55286098 21:0.58971602 22:0.49006301 23:0.670021 24:0.53438997 25:0.482164 26:0.58623099 27:0.50168103 28:0.59487897 29:0.82295698 30:0.510629 31:0.72660398 32:0.82010299 33:0.219291 34:0.508775 35:0.62107098 36:0.218044 37:0.27513 38:0.49027401 39:0.364508 40:0.114832 41:0.71682101 42:0.64228302 43:0.14951099 44:1 45:0.76133102 46:0.221756 47:0.77361399 48:0.75799799 49:0.149986 50:0.65284002 51:0.82161802 52:0.165898 53:0.897241 54:1 55:0.24399 56:0.57980102 57:0.99349397 58:0.29148099 59:0.47113201 60:0.71766299 61:0.26852801 62:0.413959 63:0.68424797 64:0.28695101 65:0.31587201 66:0.829337 67:0.480831 68:0.86117899 69:1 70:0.50574398 71:0.69851702 72:1 73:0.59634399 74:0.386242 75:1 76:0.98734897 77:0.81727701 78:1 79:0.869618 80:0.35814601 81:0.87290698 82:0.60993397 83:0.15929601 84:0.68985498 85:0.62768698 86:0.135465 87:0.76405603 88:0.65628999 89:0.105626 90:0.564408 91:0.72723901 92:0.190808 93:1 94:1 95:0.39454901 96:0.675919 97:0.876068 98:0.27745801 99:0.63886601 100:0.972808 101:0.48423299 102:0.78254902 103:0.97117102 104:0.419678 #
1.3262774792999394435355497989804 1:0.64999998 2:0.036550201 3:0.0183983 4:0.026098199 5:0.0287933 6:0.098944597 7:0.120806 8:0.073701903 9:0.0556341 10:0.18843 11:0.32104701 12:0.398904 13:0.50385302 14:0.612764 15:0.51223803 16:0.54268199 17:0.68618101 18:0.91377097 19:0.95343202 20:0.85776103 21:0.755252 22:0.59610999 23:0.555641 24:0.53522301 25:0.50985497 26:0.46118701 27:0.41917399 28:0.42786199 29:0.39740899 30:0.37764099 31:0.28632 32:0.210564 33:0.207766 34:0.29750699 35:0.340262 36:0.39412701 37:0.35343 38:0.27907199 39:0.26841399 40:0.27292699 41:0.243834 42:0.183919 43:0.12701 44:0.035677299 45:0.055825699 46:0.113933 47:0.171235 48:0.213706 49:0.180953 50:0.082476303 51:0.0336219 52:0.0217437 53:0.032428399 54:0.0210738 55:0.0166244 56:0.061843298 57:0.097606301 58:0.071264103 59:0.066784099 60:0.038540799 61:0.0081717502 62:0.0071553802 63:0.0136642 64:0.00176036 65:0.0176712 66:0.055646501 67:0.080244899 68:0.123131 69:0.066441901 70:0.037509199 71:0.0678581 72:0.097802401 73:0.108581 74:0.085010096 75:0.058484402 76:0.0979091 77:0.14595 78:0.081213601 79:0.110637 80:0.055322699 81:0.026460901 82:0.0208972 83:0.030021699 84:0.0137785 85:0.0072502601 86:0.024581799 87:0.0214501 88:0.0273022 89:0.0311203 90:0.0348856 91:0.062541202 92:0.069220699 93:0.081173398 94:0.050718699 95:0.058411401 96:0.00239791 97:0.019308301 98:0.017133201 99:0.0231608 100:0.0312465 101:0.031805299 102:0.035316199 103:0.0127726 104:0.00081856397 #
0.96716382564122738152434521907708 1:0.81666702 2:0.0028774899 3:0.0346779 4:0.040148601 5:0.059467901 6:0.124321 7:0.178468 8:0.20633 9:0.175365 10:0.060316902 11:0.122602 12:0.29342201 13:0.47857699 14:0.61779702 15:0.60548699 16:0.66747099 17:0.76792902 18:0.896357 19:0.81069499 20:0.68162602 21:0.61422902 22:0.52130902 23:0.48925799 24:0.42456201 25:0.40832299 26:0.43831 27:0.47343099 28:0.51526099 29:0.49218899 30:0.45780101 31:0.39897501 32:0.402733 33:0.38310099 34:0.26275101 35:0.176948 36:0.162692 37:0.186041 38:0.18308599 39:0.246659 40:0.26981801 41:0.30984199 42:0.23149601 43:0.21037801 44:0.211463 45:0.214478 46:0.20240299 47:0.174619 48:0.134029 49:0.090315901 50:0.0831232 51:0.106985 52:0.127407 53:0.134819 54:0.133063 55:0.098338597 56:0.0871512 57:0.067765698 58:0.0135743 59:0.019135499 60:0.0692067 61:0.089878298 62:0.12321 63:0.113873 64:0.093867898 65:0.056287099 66:0.038482901 67:0.0224857 68:0.0514598 69:0.0529605 70:0.078381702 71:0.0478695 72:0.048342999 73:0.034849901 74:0.028656499 75:0.012702 76:0.0111596 77:0.0441848 78:0.0209406 79:0.00561326 81:0.0204954 82:0.0215137 83:0.073641799 84:0.069846101 85:0.078633897 86:0.086520597 87:0.037781499 88:0.026420999 89:0.0231745 90:0.024248799 91:0.042781301 92:0.028979 93:0.038772199 94:0.0164508 95:0.0106134 96:0.020808499 97:0.0289621 98:0.016795101 99:0.000417242 100:0.0310567 101:0.0199717 102:0.035403501 103:0.0151647 104:0.00642621 #
0.64088648228872369116970730829053 1:0.366667 2:0.0398723 3:0.043706201 4:0.045345102 5:0.073927604 6:0.150998 7:0.175761 8:0.15424199 9:0.14891499 10:0.20296299 11:0.294296 12:0.36765999 13:0.54108697 14:0.68970299 15:0.626046 16:0.62813598 17:0.76998597 18:0.97792 19:0.88709903 20:0.686481 21:0.46967199 22:0.27301201 23:0.27524799 24:0.305747 25:0.29855701 26:0.27163401 27:0.23603299 28:0.28200501 29:0.33361399 30:0.42011699 31:0.401948 32:0.313602 33:0.19299801 34:0.174602 35:0.21213201 36:0.249524 37:0.22825199 38:0.178703 39:0.14263301 40:0.053497199 41:0.119621 42:0.16136 43:0.167153 44:0.091681696 45:0.097499102 46:0.135499 47:0.19649699 48:0.1964 49:0.14088 50:0.0558009 51:0.0674178 52:0.0946583 53:0.089725398 54:0.041858599 55:0.041670699 56:0.062800899 57:0.059834 58:0.0182418 59:0.0784631 60:0.107467 61:0.15966301 62:0.203236 63:0.201998 64:0.12758701 65:0.083156101 66:0.053745199 67:0.045259502 68:0.058797099 69:0.048850901 70:0.0107261 71:0.047897901 72:0.093009703 73:0.098549202 74:0.080977403 75:0.049467102 76:0.095803797 77:0.217445 78:0.11444 79:0.14273401 80:0.059334502 81:0.0308598 82:0.036601301 83:0.048925299 84:0.040585801 85:0.059864402 86:0.044657499 87:0.0140431 88:0.00931066 89:0.032162402 90:0.034479398 91:0.046048298 92:0.0375062 93:0.065359302 94:0.060556699 95:0.051028099 96:0.031555101 97:0.0556399 98:0.043861501 99:0.050620101 100:0.0091842497 101:0.0113729 102:0.0102428 103:0.0228162 104:0.040799402 #
-1.1908272434611630874456977835507 1:0.55000001 2:0.022954701 3:0.0060013402 4:0.0279718 5:0.043510601 6:0.096147098 7:0.18929 8:0.24400701 9:0.255178 10:0.30342299 11:0.30247101 12:0.24331 13:0.34277701 14:0.58006501 15:0.640701 16:0.70538098 17:0.75557202 18:0.79899198 19:0.69329798 20:0.73492903 21:0.79386199 22:0.68137699 23:0.56903499 24:0.46946299 25:0.426898 26:0.39523101 27:0.369946 28:0.310644 29:0.190401 30:0.17373 31:0.267324 32:0.28369999 33:0.181023 34:0.0745252 35:0.140378 36:0.21948101 37:0.240363 38:0.237225 39:0.245342 40:0.20696101 41:0.161218 42:0.16046 43:0.165545 44:0.112206 45:0.050262801 46:0.037221 47:0.050466102 48:0.036787499 49:0.019345401 50:0.0540598 51:0.093317799 52:0.134069 53:0.19670001 54:0.181894 55:0.126113 56:0.101916 57:0.116429 58:0.12863 59:0.15785 60:0.124243 61:0.149783 62:0.22653601 63:0.23112699 64:0.138567 65:0.052445501 66:0.107504 67:0.145364 68:0.171728 69:0.125093 70:0.230748 71:0.230361 72:0.18742 73:0.142931 74:0.103294 75:0.0996456 76:0.147907 77:0.109045 78:0.0482543 79:0.072313301 80:0.048331 81:0.030748701 82:0.0162654 83:0.029459501 84:0.017044101 85:0.0079806196 86:0.00173722 87:0.030754101 88:0.0350555 89:0.0339275 90:0.037894901 91:0.0703407 92:0.0909288 93:0.0815842 94:0.059694599 95:0.085999899 96:0.0196964 97:0.0069564302 98:0.0120102 99:0.0244171 100:0.038573999 101:0.036244001 102:0.029033899 103:0.017201001 104:0.025107499 #
-0.37260380716901025932585866939917 2:0.00846544 3:0.030918499 4:0.0269097 5:0.0393284 6:0.103512 7:0.14289799 8:0.143374 9:0.20941 10:0.33326399 11:0.302618 12:0.078193799 13:0.118828 14:0.50122201 15:0.64539403 16:0.69075102 17:0.68254602 18:0.69621998 19:0.74692601 20:0.82789397 21:0.76947898 22:0.70730799 23:0.82867903 24:0.801507 25:0.64544803 26:0.48374501 27:0.45106301 28:0.495704 29:0.46337801 30:0.313649 31:0.19864 32:0.38723499 33:0.45162401 34:0.30867201 35:0.169714 36:0.14077 37:0.14936399 38:0.21745799 39:0.29372099 40:0.237326 41:0.223856 42:0.274104 43:0.356105 44:0.367266 45:0.30600199 46:0.19760799 47:0.17803 48:0.202227 49:0.10871 50:0.100054 51:0.14327499 52:0.107863 53:0.087800801 54:0.115208 55:0.074806303 56:0.0114567 57:0.051502898 58:0.085223101 59:0.103158 60:0.067568101 61:0.0235263 62:0.0343321 63:0.065435901 64:0.054020599 65:0.032365002 66:0.076200701 67:0.0813336 68:0.0225046 69:0.0653622 70:0.115351 71:0.0840685 72:0.0788339 73:0.072982103 74:0.0207026 75:0.018509001 76:0.0189758 77:0.0255925 78:0.031927198 79:0.027545899 80:0.022565801 81:0.0115343 82:0.0097547797 83:0.045995701 84:0.0265972 85:0.027234601 86:0.0240438 87:0.023520401 88:0.0199576 89:0.016808501 90:0.0071403901 91:0.0131866 92:0.00194948 93:0.0423178 94:0.045686699 95:0.059477001 96:0.00698674 97:0.0157445 98:0.0172987 99:0.0254441 100:0.0092431204 101:0.0056534898 102:0.0121126 103:0.0139166 104:0.0273201 #
-0.33668204502115950393914545202279 1:0.55000001 2:0.0090599302 3:0.021091299 4:0.020554001 5:0.020753 6:0.039071199 7:0.100185 8:0.156912 9:0.206701 10:0.270071 11:0.28980699 12:0.27995899 13:0.28850099 14:0.354945 15:0.302068 16:0.309627 17:0.46098799 18:0.690189 19:0.81676602 20:0.912521 21:1 22:1 23:1 24:0.92343998 25:0.86649102 26:0.790461 27:0.74699199 28:0.79354101 29:0.79903501 30:0.83594799 31:0.80755103 32:0.72372103 33:0.651416 34:0.46524799 35:0.30568701 36:0.20822901 37:0.17371 38:0.195434 39:0.30016899 40:0.38408399 41:0.43007299 42:0.378903 43:0.430787 44:0.42836601 45:0.38699001 46:0.32050201 47:0.31555 48:0.32969701 49:0.24597099 50:0.146764 51:0.12455 52:0.13979299 53:0.188437 54:0.190668 55:0.15755101 56:0.156683 57:0.16544101 58:0.123041 59:0.121428 60:0.066284001 61:0.0470322 62:0.051481601 63:0.0821945 64:0.099393196 65:0.11317 66:0.14928199 67:0.13956399 68:0.128289 69:0.043076199 70:0.027391 71:0.084016398 72:0.121455 73:0.180292 74:0.173346 75:0.175827 76:0.265508 77:0.234844 78:0.092558898 79:0.095402002 80:0.082404301 81:0.104297 82:0.085170098 83:0.092423998 84:0.043783601 85:0.00825777 86:0.018327501 87:0.045610901 88:0.055416901 89:0.062940098 90:0.052533299 91:0.0551387 92:0.0538905 93:0.036056601 94:0.017539101 95:0.093295299 96:0.066980399 97:0.063993901 98:0.042710099 99:0.024643101 100:0.0126278 101:0.0447313 102:0.077723101 103:0.097025603 104:0.103676 #
0.68673629407677660996256463477039 1:0.64166701 2:0.0168416 3:0.040000301 4:0.0617612 5:0.099163301 6:0.21267401 7:0.29200101 8:0.36137599 9:0.55538601 10:0.81099701 11:0.89104199 12:0.75450498 13:0.644054 14:0.61540902 15:0.52138698 16:0.45431101 17:0.41170001 18:0.38325101 19:0.335237 20:0.22418401 21:0.063194402 22:0.050640199 23:0.158501 24:0.142322 25:0.11742 26:0.144446 27:0.174567 28:0.193822 29:0.162302 30:0.15220501 31:0.121568 32:0.100751 33:0.0555682 34:0.13323399 35:0.158648 36:0.147883 37:0.114347 38:0.139994 39:0.125412 40:0.054280698 41:0.0953959 42:0.086242102 43:0.073521301 44:0.050085802 45:0.018159701 46:0.0144324 47:0.000655165 48:0.0169289 49:0.035174999 50:0.0164326 51:0.020086501 52:0.016586101 53:0.0111608 54:0.058445301 55:0.0414753 56:0.0389699 57:0.0149013 58:0.0057318299 59:0.070113197 60:0.075900897 61:0.072840102 62:0.088214502 63:0.082509197 64:0.057573698 65:0.0162763 66:0.0214517 67:0.043289799 68:0.076193601 69:0.070691802 70:0.092996202 71:0.066372 72:0.066531703 73:0.030939801 74:0.0014026799 75:0.031672299 76:0.065098703 77:0.047795098 78:0.0237951 79:0.0081410203 80:0.0101711 81:0.039101101 82:0.035905499 83:0.048202202 84:0.0160028 85:0.0136246 86:0.032273099 87:0.062276602 88:0.049711902 89:0.061595902 90:0.0535198 91:0.059960101 92:0.039441898 93:0.0042227502 94:0.01476 95:0.082505301 96:0.0345724 97:0.042377502 98:0.0349681 99:0.022466401 100:0.0046795001 101:0.042123102 102:0.024279799 103:0.045807701 104:0.0383307 #
0.61029574344747128389343515664223 1:0.64166701 2:0.067559198 3:0.011733 5:0.052452002 6:0.249898 7:0.48089099 8:0.66252601 9:0.79786301 10:0.91591901 11:0.77788901 12:0.556153 13:0.44990101 14:0.43696901 15:0.35765201 16:0.29334801 17:0.30807701 18:0.34410501 19:0.36058801 20:0.42629701 21:0.51223099 22:0.398765 23:0.22763699 24:0.140413 25:0.19406401 26:0.26490799 27:0.29830801 28:0.30025801 29:0.265645 30:0.26709399 31:0.253883 32:0.164693 33:0.113447 34:0.161395 35:0.120684 36:0.087114401 37:0.032587498 38:0.00396745 39:0.082747899 40:0.114352 41:0.073590502 42:0.0417418 43:0.085479803 44:0.101629 45:0.063073799 46:0.044411201 47:0.0124142 48:0.00226741 49:0.047154199 50:0.038769301 51:0.0040694801 52:0.0052644098 53:0.034487199 54:0.059245501 55:0.047743998 56:0.041434001 57:0.025812 58:0.0079791304 59:0.0363115 60:0.054065801 61:0.073918402 62:0.113616 63:0.104569 64:0.073785998 65:0.042256001 66:0.051861599 67:0.077351399 68:0.085640401 69:0.0089699104 70:0.058798701 71:0.073186897 72:0.069024302 73:0.059126101 74:0.021721801 75:0.0169283 76:0.043573301 77:0.0347335 78:0.0135987 79:0.036255699 80:0.045166899 81:0.0133337 82:0.00345618 83:0.034369498 84:0.0258353 85:0.0267564 86:0.055622902 87:0.055736698 88:0.062820598 89:0.070341103 90:0.081501402 91:0.110795 92:0.0990116 93:0.066744901 94:0.017816201 95:0.0143863 96:0.0512251 97:0.067480102 98:0.036355201 99:0.0204423 100:0.033293098 101:0.034126099 102:0.051298302 103:0.0601409 104:0.0421056 #
-0.3457713878068199853110797903355 1:0.18333299 2:0.035994701 3:0.044430401 4:0.0533337 5:0.063750103 6:0.18921299 7:0.49222299 8:0.648579 9:0.58438802 10:0.55620599 11:0.48014 12:0.368624 13:0.33507299 14:0.31497601 15:0.25562301 16:0.30347499 17:0.41053399 18:0.57672101 19:0.63034099 20:0.60776699 21:0.65364301 22:0.66683102 23:0.658683 24:0.62037402 25:0.58412403 26:0.57667398 27:0.58678502 28:0.63064498 29:0.67074603 30:0.78174597 31:0.79593301 32:0.80513698 33:0.76822698 34:0.69650298 35:0.52907199 36:0.40591201 37:0.25527 38:0.117345 39:0.130389 40:0.33836499 41:0.45492199 42:0.469973 43:0.54666901 44:0.478962 45:0.33378601 46:0.196808 47:0.17270599 48:0.250065 49:0.32774001 50:0.356682 51:0.47113699 52:0.56410801 53:0.628452 54:0.504646 55:0.32642299 56:0.22315 57:0.20587701 58:0.21390399 59:0.32318699 60:0.33941999 61:0.39740199 62:0.495902 63:0.51728398 64:0.47976801 65:0.45511401 66:0.57790899 67:0.55115199 68:0.66807598 69:0.45305401 70:0.62379301 71:0.567747 72:0.523534 73:0.48343799 74:0.338451 75:0.269216 76:0.32583201 77:0.26659599 78:0.102041 79:0.236834 80:0.26504099 81:0.32486701 82:0.307271 83:0.42257601 84:0.29793 85:0.28545901 86:0.344385 87:0.271604 88:0.25562599 89:0.211523 90:0.14063001 91:0.150583 92:0.150989 93:0.13607 94:0.052324802 95:0.081400298 96:0.117336 97:0.197501 98:0.18952 99:0.28521001 100:0.33458599 101:0.348335 102:0.35592499 103:0.323845 104:0.26617399 #
-0.33086914902930503190603417351667 1:0.15000001 2:0.034161601 3:0.047730502 4:0.037082799 5:0.068188503 6:0.266671 7:0.49375299 8:0.55251002 9:0.52528602 10:0.580616 11:0.550381 12:0.41949299 13:0.36443001 14:0.394456 15:0.37394801 16:0.36428899 17:0.412781 18:0.47230101 19:0.49679601 20:0.57574803 21:0.63880402 22:0.584598 23:0.57695502 24:0.59127098 25:0.60667801 26:0.61329901 27:0.64812499 28:0.685965 29:0.67337102 30:0.64124602 31:0.56578398 32:0.53748 33:0.538885 34:0.44523099 35:0.407884 36:0.39290699 37:0.32365799 38:0.211704 39:0.22682001 40:0.293612 41:0.260133 42:0.29583699 43:0.44739601 44:0.426186 45:0.28820199 46:0.16818701 47:0.079254903 48:0.069222301 49:0.191779 50:0.17372499 51:0.22171199 52:0.31207001 53:0.30767599 54:0.25982299 55:0.283995 56:0.28506801 57:0.219538 58:0.228109 59:0.415885 60:0.45197901 61:0.48881701 62:0.554941 63:0.55619901 64:0.472635 65:0.418091 66:0.54497999 67:0.55483001 68:0.70133603 69:0.50769597 70:0.765688 71:0.691401 72:0.56171799 73:0.44046 74:0.24314401 75:0.220185 76:0.454891 77:0.68085903 78:0.440409 79:0.66565502 80:0.44530699 81:0.41804001 82:0.35052899 83:0.47476599 84:0.39109501 85:0.414983 86:0.52130598 87:0.43640801 88:0.428417 89:0.36280799 90:0.246857 91:0.223107 92:0.158391 93:0.087518997 94:0.067195997 95:0.21114101 96:0.13996699 97:0.18049499 98:0.171867 99:0.242909 100:0.25696099 101:0.26419601 102:0.277349 103:0.29579401 104:0.29530001 #
-0.4108547856942523224255126024218 1:0.55000001 2:0.0144995 3:0.032760698 4:0.036215398 5:0.0605263 6:0.18674199 7:0.342417 8:0.44842401 9:0.59880698 10:0.78021502 11:0.80868 12:0.68828601 13:0.58778 14:0.47485301 15:0.323203 16:0.19462299 17:0.220662 18:0.31287399 19:0.38774401 20:0.41442999 21:0.405754 22:0.340606 23:0.39253801 24:0.502693 25:0.59266698 26:0.64162201 27:0.65730298 28:0.69710302 29:0.69125998 30:0.63951099 31:0.485724 32:0.38401201 33:0.34323001 34:0.27951899 35:0.182854 36:0.118668 37:0.096094497 38:0.065736003 39:0.085501701 40:0.081382997 41:0.047364999 42:0.037370499 43:0.108906 44:0.15923201 45:0.13865601 46:0.089615397 47:0.111723 48:0.20778 49:0.25933799 50:0.235337 51:0.255541 52:0.275576 53:0.280839 54:0.233081 55:0.19026899 56:0.16632199 57:0.138712 58:0.0920811 59:0.10879 60:0.121716 61:0.154581 62:0.22041599 63:0.246507 64:0.20909201 65:0.173987 66:0.239507 67:0.300964 68:0.458909 69:0.33160901 70:0.466703 71:0.43186799 72:0.37507799 73:0.32947201 74:0.207762 75:0.15215901 76:0.180879 77:0.150958 78:0.087739997 79:0.18793499 80:0.186773 81:0.190669 82:0.161947 83:0.214367 84:0.16604801 85:0.183577 86:0.25741601 87:0.211174 88:0.17515001 89:0.13542999 90:0.110405 91:0.152284 92:0.183792 93:0.213084 94:0.20146801 95:0.37699801 96:0.201171 97:0.200304 98:0.129535 99:0.142619 100:0.152079 101:0.16372401 102:0.171938 103:0.13826901 104:0.075873204 #
0.80890738370867010242903916150681 1:0.366667 2:0.086568199 3:0.081032999 4:0.0280082 5:0.086489603 6:0.35764 7:0.473454 8:0.45699999 9:0.29758099 10:0.12712801 11:0.254017 12:0.36037201 13:0.52631098 14:0.60332298 15:0.59316403 16:0.60152 17:0.659145 18:0.77228397 19:0.71751499 20:0.65205097 21:0.60696602 22:0.51524103 23:0.47152901 24:0.34873301 25:0.224887 26:0.13136899 27:0.042106599 28:0.079808302 29:0.118024 30:0.130697 31:0.109708 32:0.095804401 33:0.21539401 34:0.32291999 35:0.256589 36:0.23961 37:0.148321 38:0.115711 39:0.19563399 40:0.22975001 41:0.27091101 42:0.192992 43:0.142767 44:0.011946 45:0.0374333 46:0.071364596 47:0.083659999 48:0.108857 49:0.161211 50:0.104375 51:0.079370499 52:0.0058858101 53:0.0141506 54:0.076299801 55:0.078801297 56:0.101628 57:0.0526843 58:0.0495698 59:0.036672 60:0.059891399 61:0.106922 62:0.151914 63:0.147921 64:0.132107 65:0.111992 66:0.114786 67:0.035163101 68:0.0026016501 69:0.040295001 70:0.049637102 71:0.084211402 72:0.091368802 73:0.112252 74:0.113013 75:0.0754935 76:0.158553 77:0.136519 78:0.062091801 79:0.11336 80:0.0449875 81:0.065698601 82:0.049786098 83:0.069903404 84:0.0280672 85:0.023805 86:0.049781501 87:0.046028599 88:0.056979299 89:0.054879799 90:0.078047603 91:0.076426402 92:0.0646047 94:0.0126762 95:0.130684 96:0.078959502 97:0.092738897 98:0.027821699 99:0.0608023 100:0.0406744 101:0.036715701 102:0.0123845 103:0.0480261 104:0.0044826702 #
0.75404190100722257028564854408614 1:0.81666702 2:0.021442199 3:0.0165905 4:0.088003501 5:0.22048999 6:0.67657602 7:0.783674 8:0.59696698 9:0.328329 10:0.0281715 11:0.38862199 12:0.54454702 13:0.67602402 14:0.61878401 15:0.442985 16:0.248044 17:0.16258 18:0.263946 19:0.46146601 20:0.54164201 21:0.54411602 22:0.36540601 23:0.25990099 24:0.23162299 25:0.19246399 26:0.20522299 27:0.199554 28:0.273269 29:0.34186 30:0.430381 31:0.41420001 32:0.35243499 33:0.29643601 34:0.23101901 35:0.151599 36:0.16553999 37:0.160512 38:0.167576 39:0.18072701 40:0.170693 41:0.186349 42:0.124217 43:0.099466503 44:0.077879399 45:0.078818798 46:0.089967698 47:0.104445 48:0.157355 49:0.177131 50:0.118592 51:0.0940466 52:0.082929097 53:0.111722 54:0.115646 55:0.11428 56:0.090190098 57:0.074344397 58:0.069645897 59:0.064929403 60:0.0268037 61:0.035900898 62:0.095482402 63:0.139575 64:0.127186 65:0.093944803 66:0.077771999 67:0.104533 68:0.210271 69:0.158665 70:0.17838401 71:0.14193401 72:0.112717 73:0.100222 74:0.0231773 76:0.090703003 77:0.102132 78:0.041923899 79:0.075370297 80:0.090735897 81:0.072746597 82:0.077683702 83:0.109178 84:0.086865298 85:0.055043299 86:0.034676898 87:0.0560009 88:0.082944803 89:0.114591 90:0.0765936 91:0.066361099 92:0.045287602 93:0.050345801 94:0.0828069 95:0.17578501 96:0.099486098 97:0.085515998 98:0.036189701 99:0.040408898 100:0.064638302 101:0.0947356 102:0.105696 103:0.062889703 104:0.055978999 #
0.51890595888766644083744949966785 1:0.60000002 2:0.0383639 3:0.00138377 4:0.00331335 5:0.055871099 6:0.213259 7:0.34816101 8:0.42368501 9:0.41564 10:0.249954 11:0.041344699 12:0.31667101 13:0.583956 14:0.76210803 15:0.68757999 16:0.64778101 17:0.617459 18:0.62403399 19:0.58348501 20:0.64665902 21:0.69120097 22:0.56261897 23:0.38403201 24:0.21890099 25:0.14666501 26:0.12806 27:0.080991499 28:0.033440799 29:0.030313 30:0.095821701 31:0.10287 32:0.047565401 33:0.016928701 34:0.060906999 35:0.041363701 36:0.040715799 37:0.048135702 38:0.104371 39:0.14618 40:0.105088 41:0.0704455 42:0.087463498 43:0.104786 44:0.070911497 45:0.0295134 46:0.061335102 47:0.059511598 48:0.033574 49:0.0086565102 50:0.0350805 51:0.035967398 52:0.0325487 53:0.089162201 54:0.098209098 55:0.067522198 56:0.056127299 57:0.074562103 58:0.054764401 59:0.018495999 60:0.0287256 61:0.060921099 62:0.065494902 63:0.0611852 64:0.0369053 65:0.0157467 66:0.040284801 67:0.063998699 68:0.067561202 69:0.0172469 70:0.022280799 71:0.040571898 72:0.064406902 73:0.066980503 74:0.039824501 75:0.029088501 76:0.025911501 77:0.091595002 78:0.056138501 79:0.049274899 80:0.021302 81:0.047554601 82:0.051033501 83:0.050328001 84:0.044585299 85:0.0589047 86:0.052572198 87:0.032982498 88:0.052112501 89:0.073441699 90:0.0506646 91:0.034251399 92:0.0626821 93:0.093932196 94:0.067061096 95:0.103924 96:0.0745636 97:0.088197701 98:0.0453065 99:0.0217696 100:0.035572499 101:0.041517898 102:0.047687501 103:0.062598698 104:0.040543601 #
-0.87068707776114995233740501134889 1:0.18333299 2:0.0426706 3:0.0114852 4:0.047976501 5:0.065447398 6:0.195355 7:0.31630799 8:0.34372401 9:0.40511 10:0.64190501 11:0.62866402 12:0.36582801 13:0.14378899 14:0.49965701 15:0.67694497 16:0.73858303 17:0.708534 18:0.58509099 19:0.52995199 20:0.64111102 21:0.63097101 22:0.44489199 23:0.345171 24:0.27907801 25:0.24704599 26:0.246759 27:0.19996201 28:0.13539299 29:0.166694 30:0.25780499 31:0.28725901 32:0.222755 33:0.112943 34:0.136408 35:0.18944401 36:0.219313 37:0.209921 38:0.195089 39:0.224841 40:0.222653 41:0.265322 42:0.232224 43:0.202732 44:0.14675801 45:0.13619401 46:0.13464101 47:0.145943 48:0.14248499 49:0.042376898 50:0.041490801 51:0.0574609 52:0.0178997 53:0.097498901 54:0.126026 55:0.087789603 56:0.063401997 57:0.0897009 58:0.084830403 59:0.090937003 60:0.063425101 61:0.060588699 62:0.101802 63:0.148834 64:0.137619 65:0.086757697 66:0.0281944 67:0.065668002 68:0.11973 69:0.102332 70:0.152242 71:0.106064 72:0.092722699 73:0.089121602 74:0.0574711 75:0.111364 76:0.202308 77:0.15792599 78:0.109695 79:0.239134 80:0.16621201 81:0.139816 82:0.113955 83:0.16452 84:0.122423 85:0.103452 86:0.12728301 87:0.113284 88:0.074112803 89:0.053085901 90:0.053478699 91:0.056983501 92:0.063519597 93:0.073465101 94:0.00511974 95:0.047476102 96:0.025640599 97:0.016277401 98:0.0295697 99:0.044213701 100:0.044156998 101:0.054266199 102:0.089294903 103:0.103623 104:0.071023799 #
-0.43601793244081110678678214753745 1:0.55000001 2:0.0437527 3:0.018127 4:0.022229301 5:0.050505601 6:0.13347501 7:0.22764499 8:0.26090199 9:0.22102299 10:0.182503 11:0.258834 12:0.25988299 13:0.39388001 14:0.68766803 15:0.76120102 16:0.80995202 17:0.78978503 18:0.69482899 19:0.59650803 20:0.61391503 21:0.55803502 22:0.39476699 23:0.32365501 24:0.248225 25:0.214385 26:0.217273 27:0.18495999 28:0.122398 29:0.065156102 30:0.116962 31:0.15613601 32:0.18380401 33:0.14703099 34:0.0284096 35:0.19486199 36:0.30613899 37:0.29282901 38:0.217425 39:0.19314601 40:0.16560601 41:0.318977 42:0.35374999 43:0.31323701 44:0.20044699 45:0.23183601 46:0.229027 47:0.22286899 48:0.238416 49:0.155568 50:0.121343 51:0.17494901 52:0.20458201 53:0.30941701 54:0.38571501 55:0.38478199 56:0.39351201 57:0.44688401 58:0.427468 59:0.564008 60:0.49164501 61:0.42961001 62:0.43264601 63:0.351477 64:0.185151 65:0.096699603 66:0.119779 67:0.064621203 68:0.200651 69:0.202841 70:0.269777 71:0.28344899 72:0.23675001 73:0.188418 74:0.187135 75:0.26093599 76:0.57616198 77:0.76107001 78:0.42236799 79:0.70083702 80:0.53467298 81:0.50340998 82:0.428395 83:0.52921897 84:0.36233401 85:0.388722 86:0.55144602 87:0.44202501 88:0.373492 89:0.304418 90:0.20334201 91:0.16858999 92:0.0906251 93:0.120312 94:0.216427 95:0.45365199 96:0.24626601 97:0.250328 98:0.18195701 99:0.255909 100:0.32338899 101:0.354812 102:0.34149501 103:0.315716 104:0.235918 #
-0.29694050325316995175839451803768 2:0.107162 3:0.065398 4:0.0054019699 6:0.136274 7:0.324285 8:0.415425 9:0.36717999 10:0.539868 11:0.465213 12:0.356536 13:0.330116 14:0.354278 15:0.29314899 16:0.317175 17:0.44082999 18:0.63096201 19:0.70536798 20:0.72186702 21:0.83890802 22:0.91867 23:0.87485498 24:0.79346901 25:0.71916097 26:0.66306198 27:0.62954497 28:0.632016 29:0.678801 30:0.76667601 31:0.76999199 32:0.77381903 33:0.75685501 34:0.65877098 35:0.49922499 36:0.42798901 37:0.397416 38:0.33680701 39:0.370065 40:0.3545 41:0.339775 42:0.301319 43:0.337612 44:0.39656299 45:0.390201 46:0.35773599 47:0.40268901 48:0.49946001 49:0.53989798 50:0.43297601 51:0.48414299 52:0.55209398 53:0.61390197 54:0.55240399 55:0.425616 56:0.35102299 57:0.32217199 58:0.18117601 59:0.158197 60:0.143333 61:0.159481 62:0.218316 63:0.230373 64:0.205277 65:0.19481701 66:0.22895201 67:0.212047 68:0.224424 69:0.12701499 70:0.158317 71:0.168329 72:0.17559101 73:0.18333299 74:0.1521 75:0.113292 76:0.16737799 77:0.115199 78:0.0382406 79:0.098047301 80:0.11364 81:0.134789 82:0.151481 83:0.206319 84:0.15752999 85:0.159511 86:0.166751 87:0.114706 88:0.088583298 89:0.079194002 90:0.081933796 91:0.107868 92:0.137554 93:0.192807 94:0.154871 95:0.242374 96:0.099037699 97:0.065200597 98:0.064599901 99:0.12018 100:0.165071 101:0.236265 102:0.261134 103:0.23316801 104:0.168336 #
0.48999515385111969134612763809855 1:0.64166701 2:0.024227601 3:0.0066046198 4:0.029663401 5:0.042008799 6:0.161314 7:0.29926601 8:0.428083 9:0.44694301 10:0.45044199 11:0.49577701 12:0.39246801 13:0.368213 14:0.63453102 15:0.72852302 16:0.78836501 17:0.75874799 18:0.67927301 19:0.46685901 20:0.32563201 21:0.150544 22:0.13301 23:0.23023701 24:0.159861 25:0.058935899 26:0.045645501 27:0.060027398 28:0.062478699 29:0.0211918 30:0.037795998 31:0.108004 32:0.090493001 33:0.0362726 34:0.065854602 35:0.072696202 36:0.033716802 37:0.026718801 38:0.0118835 39:0.087117098 40:0.19388901 41:0.21771801 42:0.108648 43:0.091889597 44:0.095513798 45:0.00058949803 46:0.034419701 47:0.057564002 48:0.0599504 49:0.093733698 50:0.045459598 51:0.0052613602 52:0.00190263 53:0.0602603 54:0.088919297 55:0.072354198 56:0.050571699 57:0.060793001 58:0.032729998 59:0.093542799 60:0.098079301 61:0.064688899 62:0.078185 63:0.13590799 64:0.095748298 65:0.040139999 66:0.062940799 67:0.065873802 68:0.0525188 69:0.0293329 71:0.0425696 72:0.052059699 73:0.016555401 74:0.0207604 75:0.0130743 76:0.0081274603 77:0.097188398 78:0.067918301 79:0.113256 80:0.111413 81:0.087564602 82:0.032997198 83:0.0422538 84:0.058397599 85:0.084107198 86:0.105505 87:0.092472203 88:0.082778499 89:0.061822701 90:0.031739499 91:0.0136445 92:0.0142101 93:0.021748001 94:0.042734999 95:0.134582 96:0.040761001 97:0.0144828 98:0.0182925 99:0.029302699 100:0.020426 101:0.030981099 102:0.0394499 103:0.033206102 104:0.00252187 #
0.31144513236958187851755042174773 1:0.60000002 2:0.027389901 3:0.0104342 4:0.041994601 5:0.179846 6:0.49692601 7:0.70129001 8:0.69956499 9:0.48536301 10:0.119131 11:0.38038599 12:0.57836699 13:0.69064599 14:0.65978402 15:0.45419699 16:0.338691 17:0.31255201 18:0.41023999 19:0.41552901 20:0.37965599 21:0.37561399 22:0.252909 23:0.13044301 24:0.152931 25:0.19173899 26:0.16190401 27:0.14081401 28:0.198558 29:0.260122 30:0.265726 31:0.24022301 32:0.36132401 33:0.43747899 34:0.283977 35:0.196162 36:0.264191 37:0.26085901 38:0.238326 39:0.342646 40:0.28678501 41:0.075679697 42:0.105012 43:0.091815799 44:0.022782 45:0.081189401 46:0.019122301 47:0.110942 48:0.21506999 49:0.15684301 50:0.14133 51:0.189064 52:0.178918 53:0.119101 54:0.0484761 55:0.035406101 56:0.042723801 57:0.0309247 58:0.030075399 59:0.018347699 60:0.0213833 61:0.0461068 62:0.093935497 63:0.114675 64:0.114357 65:0.075542398 66:0.027665701 67:0.038083099 68:0.085654601 69:0.068653397 70:0.133688 71:0.154713 72:0.13186599 73:0.070161 74:0.0142489 75:0.076643899 76:0.12956201 77:0.0560463 78:0.099997602 79:0.197431 80:0.114991 81:0.0987036 82:0.063129999 83:0.046068002 84:0.081739202 85:0.105536 86:0.093797997 87:0.058062602 88:0.0772634 89:0.067733303 90:0.032232199 91:0.00516936 92:0.024782199 93:0.050762098 94:0.0258407 95:0.114318 96:0.053636 97:0.0650554 98:0.087481998 99:0.118188 100:0.119844 101:0.176201 102:0.183015 103:0.13422699 104:0.12762199 #
0.48448056456419164028659452014836 1:0.81666702 2:0.0023618799 3:0.0174185 4:0.0121232 5:0.060663901 6:0.163583 7:0.191934 8:0.158021 9:0.101631 10:0.139754 11:0.327629 12:0.40458399 13:0.50136697 14:0.66477501 15:0.66716301 16:0.73617899 17:0.84920198 18:0.996629 19:0.80040199 20:0.56023502 21:0.384983 22:0.22008 23:0.124646 24:0.087878697 25:0.120285 26:0.115256 27:0.093156599 28:0.071144298 29:0.089995898 30:0.098196201 31:0.063225299 32:0.053738199 33:0.078866802 34:0.0269222 35:0.022562601 36:0.110345 37:0.107166 38:0.069978103 39:0.0079835001 40:0.071237102 41:0.145822 42:0.097911 43:0.0693902 44:0.086719699 45:0.109691 46:0.117368 47:0.112223 48:0.103513 49:0.033583701 50:0.031910799 51:0.074654602 52:0.088514201 53:0.0535683 54:0.047740299 55:0.059913602 56:0.066812098 57:0.0403318 58:0.0032899601 59:0.016932299 60:0.0363121 61:0.0495946 62:0.078975201 63:0.074863002 64:0.054488 65:0.0289694 66:0.022860801 67:0.031465702 68:0.0017904399 69:0.0258835 70:0.096997298 71:0.085280001 72:0.056841999 73:0.022239201 74:0.0299863 75:0.029602399 76:0.056979202 77:0.067003801 78:0.031346701 79:0.018384701 80:0.013859 81:0.023012901 82:0.00725717 83:0.026430801 84:0.019698899 85:0.0267589 86:0.028294099 87:0.0228504 88:0.016143 89:0.0105159 90:0.00102218 91:0.0117212 92:0.0021659101 93:0.0039908299 94:0.01718 95:0.0562164 96:0.039607 97:0.023320001 98:0.020213 99:0.0181538 100:0.025697401 101:0.0102898 102:0.0184684 103:0.0059052701 104:0.0050248601 #
-0.28907394555158083537804714069352 2:0.0818232 3:0.038451001 4:0.021174399 5:0.054136701 6:0.200528 7:0.36069301 8:0.46438801 9:0.471057 10:0.55685598 11:0.490895 12:0.39303601 13:0.40736699 14:0.50939202 15:0.478634 16:0.45398399 17:0.45148599 18:0.475903 19:0.56143498 20:0.688061 21:0.70696002 22:0.57939303 23:0.54607499 24:0.60653299 25:0.67367202 26:0.662413 27:0.62949902 28:0.57663602 29:0.53636801 30:0.56642199 31:0.498844 32:0.43626899 33:0.416857 34:0.39599001 35:0.34205401 36:0.21998601 37:0.178074 38:0.166899 39:0.202029 40:0.20544 41:0.152354 42:0.108361 43:0.094766498 44:0.13356601 45:0.16050699 46:0.163507 47:0.19894899 48:0.290829 49:0.37391001 50:0.32765099 51:0.34686801 52:0.42596999 53:0.43302599 54:0.279769 55:0.11955 56:0.146061 57:0.25154501 58:0.240376 59:0.28147101 60:0.27847999 61:0.300291 62:0.309937 63:0.21579801 64:0.102332 65:0.111305 66:0.178536 67:0.17569099 68:0.29610801 69:0.24349301 70:0.31880301 71:0.28264201 72:0.223682 73:0.19746201 74:0.15568601 75:0.144096 76:0.262189 77:0.329595 78:0.161999 79:0.258012 80:0.231758 81:0.22827999 82:0.20548099 83:0.28790399 84:0.220816 85:0.26851201 86:0.403833 87:0.36684099 88:0.39297801 89:0.35003501 90:0.25800699 91:0.26510099 92:0.211613 93:0.158732 94:0.136297 95:0.330984 96:0.220272 97:0.28892201 98:0.24686299 99:0.388363 100:0.461391 101:0.50029302 102:0.57056999 103:0.55621499 104:0.48579001 #
-0.31216222033944385216841510555241 1:0.18333299 2:0.082999997 3:0.0285521 4:0.0245972 5:0.078131303 6:0.26286101 7:0.48831201 8:0.61983901 9:0.56015098 10:0.55285299 11:0.51298398 12:0.402253 13:0.323551 14:0.432603 15:0.47403401 16:0.500763 17:0.537754 18:0.52277303 19:0.504749 20:0.535878 21:0.506495 22:0.41319001 23:0.413757 24:0.44136101 25:0.466001 26:0.492744 27:0.53301501 28:0.55232602 29:0.51953501 30:0.443266 31:0.379188 32:0.43607399 33:0.49906799 34:0.52085602 35:0.518574 36:0.46955901 37:0.43393701 38:0.39728299 39:0.49915901 40:0.47392499 41:0.38908699 42:0.307174 43:0.41331899 44:0.452389 45:0.33906499 46:0.210913 47:0.185279 48:0.14397401 49:0.111616 50:0.143227 51:0.140477 52:0.175492 53:0.27289101 54:0.34275901 55:0.35469601 56:0.33054799 57:0.302728 58:0.23106501 59:0.244258 60:0.18159799 61:0.134083 62:0.17478301 63:0.30541101 64:0.33249301 65:0.29547799 66:0.37564501 67:0.42049599 68:0.57243198 69:0.453922 70:0.73238498 71:0.66834599 72:0.56491798 73:0.488841 74:0.33676001 75:0.340996 76:0.56658399 77:0.58827299 78:0.29956099 79:0.454337 80:0.358239 81:0.36733401 82:0.28944501 83:0.32178301 84:0.21513399 85:0.203081 86:0.26212901 87:0.241539 88:0.237936 89:0.201701 90:0.14166699 91:0.15844201 92:0.20402201 93:0.26508099 94:0.195986 95:0.224049 96:0.11433 97:0.117706 98:0.079819202 99:0.076690197 100:0.041750599 101:0.039757699 102:0.037460402 103:0.056465901 104:0.045974299 #
-0.28408128186228587264139378021355 1:0.15000001 2:0.0279682 3:0.037397798 4:0.041295901 5:0.042661399 6:0.030304199 7:0.0615317 8:0.116891 9:0.156232 10:0.16925 11:0.162875 12:0.21891201 13:0.34523699 14:0.51249802 15:0.50421202 16:0.536327 17:0.70887202 18:0.90988302 19:0.85779399 20:0.770307 21:0.76572901 22:0.74605 23:0.778759 24:0.73400098 25:0.67013699 26:0.63999897 27:0.59661698 28:0.60031199 29:0.58001697 30:0.568887 31:0.52322102 32:0.54054701 33:0.58516598 34:0.51157701 35:0.394418 36:0.36098 37:0.335749 38:0.27718899 39:0.256392 40:0.18816 41:0.227368 42:0.246188 43:0.28220201 44:0.195555 45:0.069428802 46:0.0352864 47:0.080937102 48:0.0909051 49:0.065516502 50:0.00398514 51:0.0325891 52:0.112512 53:0.225089 54:0.25050101 55:0.232564 56:0.248365 57:0.34265101 58:0.338002 59:0.39955601 60:0.34153399 61:0.29324001 62:0.226658 63:0.128213 64:0.052042 65:0.043880399 66:0.089810699 67:0.103841 68:0.160916 69:0.172221 70:0.31014001 71:0.31780899 72:0.27726001 73:0.222974 74:0.131707 75:0.105578 76:0.189502 77:0.238098 78:0.12808099 79:0.197216 80:0.132672 81:0.085881703 82:0.056773301 83:0.077763498 84:0.058412202 85:0.054404501 86:0.031151099 88:0.0132929 89:0.0162351 90:0.0102623 91:0.023326499 92:0.055197701 93:0.070468001 94:0.065294102 95:0.067187399 96:0.027499299 97:0.0511574 98:0.050092001 99:0.080203302 100:0.097612403 101:0.100183 102:0.110926 103:0.100163 104:0.1017 #
-0.22838482576273053115123445877543 1:0.15000001 2:0.0389079 3:0.0117427 4:0.019700499 5:0.041434299 6:0.080807 7:0.17246 8:0.24813899 9:0.238377 10:0.274836 11:0.277906 12:0.268264 13:0.35092101 14:0.55556703 15:0.61070698 16:0.69051403 17:0.779652 18:0.85445201 19:0.761711 20:0.78393197 21:0.83863199 22:0.75006199 23:0.61744201 24:0.45514601 25:0.33395299 26:0.28699699 27:0.28277999 28:0.253539 29:0.15245201 30:0.13065501 31:0.17814501 32:0.17193 33:0.113945 34:0.034965299 35:0.094484098 36:0.143317 37:0.151623 38:0.13571 39:0.168469 40:0.17203701 41:0.161081 42:0.16025899 43:0.23258799 44:0.24842399 45:0.18766899 46:0.16155 47:0.18245301 48:0.184743 49:0.1577 50:0.160859 51:0.176991 52:0.205529 53:0.271824 54:0.240762 55:0.16867 56:0.165427 57:0.1584 58:0.091705799 59:0.10738 60:0.090286702 61:0.12052 62:0.195759 63:0.20014399 64:0.14056 65:0.090518199 66:0.117221 67:0.13025001 68:0.13036799 69:0.053200301 70:0.051024899 71:0.0135508 72:0.010282 73:0.045726702 74:0.026674099 75:0.048708301 76:0.13297901 77:0.13408799 78:0.058401499 79:0.082130998 80:0.0294671 81:0.0154101 82:0.0416729 83:0.072607599 84:0.073411003 85:0.10599 86:0.162627 87:0.15300301 88:0.155011 89:0.135142 90:0.097592898 91:0.099547297 92:0.092629403 93:0.089141198 94:0.065650403 95:0.121966 96:0.0964799 97:0.118368 98:0.084400803 99:0.094502397 100:0.079567403 101:0.074251302 102:0.056177001 103:0.052413698 104:0.066203497 #
-0.077012881267641095095477510312776 1:0.55000001 2:0.0232412 3:0.0290417 4:0.0335376 5:0.0318208 6:0.0430636 7:0.111158 8:0.18487801 9:0.25711599 10:0.29148701 11:0.237231 12:0.186912 13:0.283494 14:0.49037901 15:0.53132498 16:0.57423002 17:0.71369702 18:0.86359602 19:0.79473698 20:0.77126801 21:0.85182297 22:0.84776098 23:0.82486397 24:0.72231001 25:0.63451803 26:0.56906003 27:0.52972198 28:0.48515701 29:0.40673801 30:0.33453101 31:0.22115099 32:0.222408 33:0.27394801 34:0.24953499 35:0.182763 36:0.213943 37:0.27518299 38:0.29281101 39:0.32581499 40:0.25494099 41:0.188493 42:0.203942 43:0.28388301 44:0.26604 45:0.19224399 46:0.169246 47:0.16382299 48:0.140588 49:0.123009 50:0.136268 51:0.14249299 52:0.141564 53:0.20617101 54:0.264157 55:0.272872 56:0.28758699 57:0.336178 58:0.26370901 59:0.27277601 60:0.20561101 61:0.118766 62:0.0155959 63:0.090285704 64:0.116042 65:0.110317 66:0.15923899 67:0.19674399 68:0.29143101 69:0.208722 70:0.32090801 71:0.34140199 72:0.31539401 73:0.29185399 74:0.21459401 75:0.190773 76:0.34152901 77:0.40846899 78:0.176902 79:0.16026001 80:0.020036399 81:0.039666399 82:0.078823902 83:0.16952001 84:0.148798 85:0.179419 86:0.245041 87:0.191745 88:0.17420501 89:0.155935 90:0.134836 91:0.163158 92:0.14477199 93:0.15683401 94:0.13692001 95:0.204088 96:0.101968 97:0.079751998 98:0.0406361 99:0.032614399 100:0.047691099 101:0.062371898 102:0.068908498 103:0.049254298 104:0.034834199 #
0.10563555964846661761047386107748 1:0.366667 2:0.017937399 3:0.0266413 4:0.019062299 5:0.095857702 6:0.28897899 7:0.37213799 8:0.334084 9:0.16791999 10:0.062768601 11:0.29653099 12:0.46297401 13:0.592309 14:0.74383098 15:0.75166303 16:0.75628901 17:0.73162502 18:0.67043501 19:0.405377 20:0.310734 21:0.31438699 22:0.15391 23:0.113694 24:0.032420602 25:0.065371796 26:0.081517301 27:0.047477499 28:0.050548501 29:0.097143397 30:0.136222 31:0.078682497 32:0.0039491602 33:0.060274601 34:0.098891102 35:0.070085898 36:0.092767403 37:0.096679702 38:0.128299 39:0.153678 40:0.0880889 41:0.131015 42:0.10784 43:0.118161 44:0.117578 45:0.164143 46:0.135864 47:0.117959 48:0.1787 49:0.137968 50:0.079543397 51:0.0293054 52:0.0110463 53:0.052760702 54:0.079195403 55:0.035749301 56:0.020400699 57:0.057119299 58:0.067601003 59:0.055353399 60:0.041028999 61:0.059396502 62:0.0513613 63:0.022914199 64:0.054618999 65:0.033891998 66:0.0096762599 67:0.0095721902 68:0.031328298 69:0.025560901 70:0.0191727 71:0.0184863 72:0.0308336 73:0.070267104 74:0.038164899 75:0.023902699 76:0.058992598 77:0.058699802 78:0.0248602 79:0.0302407 80:0.071595103 81:0.075938597 82:0.041635402 83:0.044903301 84:0.023521701 85:0.0121146 86:0.046161398 87:0.0519199 88:0.056559801 89:0.0477136 90:0.001534 91:0.026165999 92:0.0119282 93:0.025993699 94:0.044453699 95:0.104155 96:0.027282201 97:0.0333069 98:0.038621701 99:0.061799701 100:0.0753313 101:0.0385275 102:0.045279801 103:0.042971902 104:0.033285499 #
-0.19389644063513652993968605642294 1:0.26666701 2:0.109415 3:0.0487171 4:0.0104147 5:0.061603401 6:0.27107599 7:0.441569 8:0.46147001 9:0.27989 10:0.51954597 11:0.58266598 12:0.46908501 13:0.312455 14:0.34551901 15:0.37510201 16:0.396561 17:0.42801699 18:0.494194 19:0.69921702 20:0.85812199 21:0.87794 22:0.72065097 23:0.67864102 24:0.68704998 25:0.65199298 26:0.55599999 27:0.54801702 28:0.54685497 29:0.538342 30:0.55901498 31:0.56499702 32:0.54795498 33:0.463227 34:0.26723301 35:0.167441 36:0.14355201 37:0.114939 38:0.098094903 39:0.236242 40:0.32207 41:0.32836699 42:0.293486 43:0.41424799 44:0.49811301 45:0.40309399 46:0.26639101 47:0.28747901 48:0.461344 49:0.48749799 50:0.301303 51:0.21574301 52:0.25740001 53:0.34806901 54:0.30853599 55:0.165213 56:0.078999899 57:0.034144599 58:0.068581603 59:0.121685 60:0.122021 61:0.095117301 62:0.109907 63:0.175404 64:0.156344 65:0.102009 66:0.106527 67:0.18691 68:0.307502 69:0.159086 70:0.126892 71:0.075460501 72:0.088306703 73:0.107425 74:0.070609197 75:0.070734598 76:0.171516 77:0.202645 78:0.092437699 79:0.12867901 80:0.103958 81:0.116509 82:0.080958202 83:0.044188298 84:0.030003401 85:0.085329697 86:0.186432 87:0.147696 88:0.105817 89:0.052541699 90:0.089616999 91:0.154704 92:0.137016 93:0.100539 94:0.024663299 95:0.066502497 96:0.057254899 97:0.0175978 98:0.0269647 99:0.0601575 100:0.039333198 101:0.0250764 102:0.087622397 103:0.116734 104:0.060490899 #
-0.15305127695301015688933432556951 1:0.18333299 2:0.065657496 3:0.0133486 4:0.0372434 5:0.084233403 6:0.15429799 7:0.248915 8:0.29399699 9:0.28895801 10:0.38910401 11:0.399923 12:0.19128799 13:0.188605 14:0.57582998 15:0.71767497 16:0.77883101 17:0.77840602 18:0.70863998 19:0.63763601 20:0.731085 21:0.71403801 22:0.53650099 23:0.41091299 24:0.308319 25:0.24115799 26:0.222141 27:0.225886 28:0.196604 29:0.101002 30:0.037508398 31:0.17102499 32:0.226794 33:0.114126 34:0.154194 35:0.324058 36:0.36330399 37:0.347657 38:0.35210899 39:0.431835 40:0.33799201 41:0.32903099 42:0.34044999 43:0.319563 44:0.24473999 45:0.26005301 46:0.19871099 47:0.15748 48:0.197101 49:0.169274 50:0.142951 51:0.17624401 52:0.17667 53:0.22201499 54:0.25455701 55:0.23749501 56:0.218062 57:0.218923 58:0.267355 59:0.36838099 60:0.29359701 61:0.328201 62:0.48822701 63:0.49989101 64:0.34514701 65:0.22247399 66:0.251035 67:0.251544 68:0.29597101 69:0.212082 70:0.36021999 71:0.36358699 72:0.30283999 73:0.217099 74:0.046914 75:0.069614299 76:0.244131 77:0.3585 78:0.235017 79:0.39388701 80:0.29324299 81:0.30699101 82:0.274905 83:0.379536 84:0.31986901 85:0.337915 86:0.38474399 87:0.28037399 88:0.25822201 89:0.226136 90:0.180134 91:0.214485 92:0.208064 93:0.175475 94:0.115601 95:0.202178 96:0.0957608 97:0.069425397 98:0.060417298 99:0.0774161 100:0.068515003 101:0.096038699 102:0.120546 103:0.132936 104:0.141969 #
0.10110189010883008364771740161814 1:0.60000002 2:0.021114299 3:0.024973899 4:0.0169295 5:0.042738698 6:0.109509 7:0.144687 8:0.13140801 9:0.082386099 10:0.101689 11:0.272089 12:0.34134001 13:0.45033601 14:0.65816301 15:0.70915902 16:0.778552 17:0.82437402 18:0.863011 19:0.68044198 20:0.57177198 21:0.48730099 22:0.384372 23:0.38513601 24:0.30719 25:0.246023 26:0.28462601 27:0.31850699 28:0.340738 29:0.324597 30:0.341903 31:0.29919299 32:0.38345399 33:0.49792001 34:0.39940599 35:0.19765 36:0.175523 37:0.190853 38:0.137881 39:0.138155 40:0.16231 41:0.171884 42:0.066670999 43:0.13885701 44:0.247125 45:0.21842 46:0.11881 47:0.079875 48:0.123114 49:0.084444404 50:0.0193932 51:0.028313201 52:0.0091225496 53:0.06239 54:0.101487 55:0.086723603 56:0.067412302 57:0.0158969 58:0.017582901 59:0.037379701 60:0.023370899 61:0.0074147801 62:0.040348802 63:0.0665913 64:0.062378202 65:0.049771599 66:0.0213612 67:0.0179072 68:0.069982499 69:0.0403869 70:0.0432497 71:0.0037674599 72:0.0151935 73:0.025921401 74:0.025679501 75:0.029625701 76:0.070444502 77:0.023802999 78:0.013623 79:0.0346126 80:0.0093090702 81:0.0204721 82:0.022199599 83:0.0120395 84:0.0138696 85:0.0217101 86:0.0159095 87:0.0177642 88:0.0106151 89:0.024859799 90:0.00577546 91:0.0045104199 92:0.00704251 93:0.0130251 94:0.020045999 95:0.022752799 96:0.0061525102 97:0.0188863 98:0.0071657901 99:0.00527767 100:0.0066111502 101:0.0178289 102:0.0264342 103:0.041928101 104:0.0135774 #
0.12385605934759087720653525366288 1:0.64999998 2:0.0048059602 3:0.0305574 4:0.0270909 5:0.031821899 6:0.15215901 7:0.207946 8:0.193179 9:0.133809 10:0.0147159 11:0.238857 12:0.43907899 13:0.621135 14:0.75101799 15:0.69429898 16:0.69002002 17:0.69976801 18:0.71806198 19:0.587614 20:0.54475099 21:0.58839601 22:0.54012698 23:0.45858899 24:0.34543699 25:0.298401 26:0.30858299 27:0.31635499 28:0.29574099 29:0.229617 30:0.185315 31:0.196281 32:0.227165 33:0.197225 34:0.109856 35:0.058626901 36:0.062997296 37:0.0640634 38:0.067350999 39:0.079931296 40:0.0712272 41:0.074540302 42:0.089276299 43:0.123993 44:0.12443 45:0.0697193 46:0.0232046 47:0.0028872001 48:0.0127089 49:0.035638701 50:0.0270044 51:0.01113 52:0.0232374 53:0.0601441 54:0.058451898 55:0.025670201 56:0.017207 57:0.0177976 58:0.025921701 59:0.0334033 60:0.0517845 61:0.066072799 62:0.072651103 63:0.074456699 64:0.0602253 65:0.040545199 66:0.054279499 67:0.053497698 68:0.038737401 69:0.039487001 70:0.056083001 71:0.035615001 72:0.0331719 73:0.061338302 74:0.063937098 75:0.040738899 76:0.0259974 77:0.017550001 78:0.0097418604 79:0.0133031 80:0.050650898 81:0.074369699 82:0.055743199 83:0.045003701 84:0.018093999 85:0.030733099 86:0.065222703 87:0.052138701 88:0.028333001 89:0.00686049 90:0.00237926 91:0.00034714601 92:0.0109355 93:0.046174102 94:0.033485599 96:0.013521 97:0.00053111702 98:0.0177626 99:0.0248302 100:0.010283 101:0.0130202 102:0.015670801 103:0.031676799 104:0.0251815 #
-0.14210029734379012178457912796148 1:0.55000001 2:0.130926 3:0.086772703 4:0.031120799 5:0.045698799 6:0.114995 7:0.30868199 8:0.45470399 9:0.53828198 10:0.635746 11:0.56987 12:0.42532301 13:0.428426 14:0.4641 15:0.41909799 16:0.37382999 17:0.43181801 18:0.484613 19:0.516662 20:0.57121402 21:0.63254201 22:0.591757 23:0.58792901 24:0.62107003 25:0.67219198 26:0.68235803 27:0.68092102 28:0.68102998 29:0.68221599 30:0.74842602 31:0.72707599 32:0.67347199 33:0.61269498 34:0.59103799 35:0.56450897 36:0.48668301 37:0.37283799 38:0.26327699 39:0.31824699 40:0.35498601 41:0.326722 42:0.24126001 43:0.28534901 44:0.324698 45:0.28875601 46:0.21732999 47:0.20035701 48:0.26993701 49:0.302845 50:0.26905999 51:0.27010599 52:0.31198901 53:0.35274699 54:0.276225 55:0.15947799 56:0.133839 57:0.18863399 58:0.19111399 59:0.24572299 60:0.2392 61:0.23401301 62:0.23409601 63:0.240352 64:0.24232 65:0.23056599 66:0.26270401 67:0.216159 68:0.29296899 69:0.219836 70:0.28626999 71:0.215599 72:0.169378 73:0.13982999 74:0.069024198 75:0.0091826897 76:0.071586899 77:0.165039 78:0.105998 79:0.13394199 80:0.061186198 81:0.0709178 82:0.103875 83:0.203834 84:0.18632799 85:0.21573301 86:0.30168301 87:0.260331 88:0.255492 89:0.23434301 90:0.168726 91:0.16961101 92:0.118349 93:0.075176097 94:0.124196 95:0.303022 96:0.16249999 97:0.180994 98:0.150104 99:0.20835499 100:0.23336101 101:0.275635 102:0.32781401 103:0.320461 104:0.274683 #
-0.15499752563417790174327137719956 1:0.15000001 2:0.153667 3:0.0760113 4:0.027446499 5:0.053164799 6:0.20819999 7:0.43064901 8:0.57481402 9:0.51339 10:0.52388501 11:0.597651 12:0.58089399 13:0.46419001 14:0.43363899 15:0.406203 16:0.45434999 17:0.58018303 18:0.65438998 19:0.636554 20:0.675282 21:0.63477498 22:0.47141299 23:0.38798201 24:0.37126201 25:0.35481101 26:0.33091801 27:0.300877 28:0.28635901 29:0.35921499 30:0.43173599 31:0.38567299 32:0.22728799 33:0.118417 34:0.172483 35:0.283191 36:0.37037399 37:0.315229 38:0.206166 39:0.225831 40:0.26635101 41:0.193405 42:0.101598 43:0.103248 44:0.104372 45:0.097562097 46:0.065240197 47:0.0893934 48:0.12782399 49:0.070006497 50:0.088964403 51:0.175188 52:0.190339 53:0.21858899 54:0.20411 55:0.182602 56:0.26889601 57:0.35668501 58:0.22838099 59:0.208085 60:0.203419 61:0.19221 62:0.165094 63:0.190963 64:0.17903399 65:0.130689 66:0.153539 67:0.171804 68:0.21609899 69:0.17821001 70:0.34761801 71:0.32728299 72:0.22509 73:0.18213899 74:0.180694 75:0.19999 76:0.34612 77:0.410319 78:0.18623701 79:0.28996801 80:0.234257 81:0.17962199 82:0.13013899 83:0.188391 84:0.111733 85:0.0776501 86:0.1015 87:0.056712899 88:0.0246944 89:0.023494501 90:0.021596599 91:0.062353998 92:0.093295202 93:0.099574201 94:0.112328 95:0.216434 96:0.107764 97:0.118609 98:0.087723002 99:0.127878 100:0.155092 101:0.139329 102:0.141398 103:0.140569 104:0.10693 #
0.18108774409421643514228605909011 1:0.60000002 2:0.0528998 3:0.0144499 4:0.0096836798 5:0.139194 6:0.42640901 7:0.51648003 8:0.36752501 9:0.13734999 10:0.22206999 11:0.50257301 12:0.55264598 13:0.61115998 14:0.72849798 15:0.67258501 16:0.54185402 17:0.44934401 18:0.50360602 19:0.500844 20:0.52058399 21:0.424961 22:0.34074101 23:0.36979201 24:0.27680001 25:0.238938 26:0.23227599 27:0.201564 28:0.25878799 29:0.26113799 30:0.25389501 31:0.197633 32:0.27724499 33:0.40079701 34:0.35365999 35:0.22551399 36:0.26589301 37:0.29075 38:0.159245 39:0.24001101 40:0.32136801 41:0.204307 42:0.201693 43:0.204622 44:0.062192 45:0.0322772 46:0.070068598 47:0.078834601 48:0.055868901 49:0.157986 50:0.186121 51:0.237912 52:0.192315 53:0.0725182 54:0.071575299 55:0.085929699 56:0.095129304 57:0.110492 58:0.054524601 59:0.063100301 60:0.092425101 61:0.088315196 62:0.092579603 63:0.0612958 64:0.0075071901 65:0.052943099 66:0.037647799 67:0.040524099 68:0.106634 69:0.027603 70:0.075272404 71:0.054496199 72:0.0353668 73:0.059335399 74:0.103639 75:0.081647202 76:0.026076101 77:0.0369712 78:0.0293866 79:0.111537 80:0.075621299 81:0.0750916 82:0.0566536 83:0.119076 84:0.137292 85:0.13705599 86:0.160348 87:0.117194 88:0.055587299 89:0.0162066 90:0.025458099 91:0.023531999 92:0.048685901 93:0.0637739 94:0.0676158 95:0.113731 96:0.032107498 97:0.0111945 98:0.0133294 99:0.0435168 100:0.11425 101:0.130647 102:0.084055804 103:0.098146804 104:0.123448 #
-0.077793909060497698493286122811696 1:0.18333299 2:0.0116879 3:0.042310402 4:0.049821001 5:0.066176303 6:0.100442 7:0.14762899 8:0.164956 9:0.15521801 10:0.27321199 11:0.277181 12:0.155215 13:0.180773 14:0.39329699 15:0.47855899 16:0.51577997 17:0.64049602 18:0.76126802 19:0.72188801 20:0.76581901 21:0.898808 22:0.88169998 23:0.86909997 24:0.84267497 25:0.83816499 26:0.78733498 27:0.69759899 28:0.64422101 29:0.59242702 30:0.58757299 31:0.57077301 32:0.59505701 33:0.57256699 34:0.41779399 35:0.22230101 36:0.20816401 37:0.305668 38:0.364014 39:0.48858899 40:0.48370901 41:0.362225 42:0.224002 43:0.34497401 44:0.36900601 45:0.238592 46:0.12546401 47:0.14432999 48:0.16450199 49:0.079478703 50:0.0678536 51:0.104901 52:0.090108097 53:0.083124399 54:0.078940503 55:0.097670697 56:0.126928 57:0.15490399 58:0.15821899 59:0.25257701 60:0.27939501 61:0.30495301 62:0.339791 63:0.293024 64:0.189622 65:0.090975203 66:0.035385601 67:0.015855599 68:0.077616498 69:0.112186 70:0.191651 71:0.191594 72:0.220751 73:0.260434 74:0.16152599 75:0.056559 76:0.0741264 77:0.19050799 78:0.107029 79:0.15870801 80:0.103071 81:0.074018501 82:0.039012201 83:0.057517 84:0.061323199 85:0.101579 86:0.148544 87:0.10022 88:0.074915901 89:0.071800999 90:0.049827199 91:0.031567499 92:0.046362601 93:0.091689102 94:0.0637113 95:0.117927 96:0.068024904 97:0.051035199 98:0.0559409 99:0.106913 100:0.111836 101:0.088113099 102:0.0725912 103:0.076206297 104:0.073761098 #
-0.049366209600767735343751496657205 2:0.0145735 3:0.077593498 4:0.0813125 5:0.0615048 6:0.068586797 7:0.109287 8:0.14205401 9:0.19043601 10:0.32115501 11:0.40206301 12:0.363592 13:0.34557399 14:0.42168301 15:0.404558 16:0.41372299 17:0.57898003 18:0.74711901 19:0.78506398 20:0.828574 21:0.90824801 22:0.85109198 23:0.82715201 24:0.79371601 25:0.77276301 26:0.72958499 27:0.70096898 28:0.69142002 29:0.676045 30:0.69921601 31:0.65665197 32:0.591676 33:0.52538198 34:0.352631 35:0.213595 36:0.106749 37:0.088018797 38:0.108258 39:0.20270699 40:0.27708101 41:0.24913 42:0.167097 43:0.193031 44:0.246592 45:0.24313 46:0.16100299 47:0.127497 48:0.136674 49:0.103529 50:0.128365 51:0.213268 52:0.230518 53:0.235269 54:0.248004 55:0.23026299 56:0.229139 57:0.33070701 58:0.350164 59:0.393022 60:0.281443 61:0.28498501 62:0.351917 63:0.340736 64:0.230317 65:0.119913 66:0.0749676 67:0.038804401 68:0.0279621 69:0.0407979 70:0.091223203 71:0.111595 72:0.149409 73:0.17530701 74:0.130605 75:0.123264 76:0.16876 77:0.179263 78:0.095210098 79:0.095136002 80:0.033316098 81:0.017835001 82:0.0098004397 83:0.0276193 84:0.035376601 85:0.031490698 86:0.049862102 87:0.066134602 88:0.066250198 89:0.0689639 90:0.049653102 91:0.079373203 92:0.087046199 93:0.044676099 94:0.0253291 95:0.077701502 96:0.0144994 97:0.0197185 98:0.0226161 99:0.017266899 100:0.057068001 101:0.092635699 102:0.087079696 103:0.091128603 104:0.075072698 #
0.10726883593043071152273171264824 1:0.366667 2:0.069369003 3:0.070355803 4:0.074527502 5:0.14514001 6:0.43498001 7:0.62698698 8:0.70667899 9:0.65379798 10:0.419296 11:0.105644 12:0.30807099 13:0.56605202 14:0.707591 15:0.57867002 16:0.50908601 17:0.442873 18:0.38023901 19:0.34006399 20:0.37455499 21:0.35898399 22:0.2255 23:0.130669 24:0.148728 25:0.17825501 26:0.15295801 27:0.092148602 28:0.077591702 29:0.079527102 30:0.093562998 31:0.041379198 32:0.0088388398 33:0.091049403 34:0.17106099 35:0.191846 36:0.174906 37:0.079216696 38:0.033569202 39:0.057604 40:0.038996901 41:0.0329969 42:0.0243761 43:0.031239299 44:0.062587902 45:0.031481799 46:0.021675101 47:0.0503616 48:0.035593301 49:0.016507899 50:0.061967 51:0.047429901 52:0.056280401 53:0.136601 54:0.15694501 55:0.144513 56:0.097525097 57:0.018725701 58:0.040840201 59:0.047006302 60:0.0104803 61:0.039346199 62:0.067740299 63:0.061549101 64:0.018684801 65:0.0057141199 66:0.034834798 67:0.038049199 68:0.0264466 69:0.022189699 70:0.0914765 71:0.0833949 72:0.045727398 73:0.0353145 74:0.0145028 75:0.0157848 76:0.022467 77:0.0154965 78:0.029841701 79:0.102423 80:0.081671201 81:0.048090801 82:0.023586201 83:0.0645089 84:0.050007299 85:0.0254984 86:0.0055807098 87:0.034747899 88:0.045730401 89:0.0353752 90:0.025302799 91:0.046952199 92:0.059797801 93:0.062093899 94:0.0256858 95:0.049796399 96:0.0311103 97:0.0268346 98:0.015038 99:0.0075359 100:0.026114 101:0.0516303 102:0.0264243 103:0.00487633 104:0.0148138 #
0.19690964844238778574947446031729 1:0.366667 2:0.0177624 3:0.031291101 4:0.036966801 5:0.061809801 6:0.123085 7:0.17327601 8:0.15386499 9:0.10248 10:0.131171 11:0.35324499 12:0.48319799 13:0.57585299 14:0.74469 15:0.73874003 16:0.75506502 17:0.784141 18:0.77270901 19:0.55431098 20:0.434719 21:0.37426001 22:0.28119099 23:0.293363 24:0.24907701 25:0.173087 26:0.123993 27:0.13323399 28:0.15072399 29:0.107434 30:0.112988 31:0.179914 32:0.19390699 33:0.12658399 34:0.042751499 35:0.062668599 36:0.131255 37:0.115693 38:0.0909466 39:0.122612 40:0.103335 41:0.0281142 42:0.132387 43:0.189487 44:0.18204799 45:0.139248 46:0.102651 47:0.0508263 48:0.048117001 49:0.028498899 50:0.0430516 51:0.049213398 52:0.035497501 53:0.059751 54:0.046741601 55:0.013259 56:0.0384399 57:0.037524302 58:0.0143381 59:0.019536201 60:0.0020672299 61:0.011597 62:0.044131801 63:0.063504703 64:0.073808096 65:0.046363998 66:0.0352038 67:0.0277074 68:0.038166299 69:0.028327599 70:0.044959199 71:0.050659299 72:0.0251604 73:0.042270102 74:0.0163185 75:0.0225376 76:0.0242646 77:0.037652101 78:0.00137004 79:0.017666301 80:0.013753 81:0.0047301501 82:0.037923899 83:0.063981101 84:0.042389698 85:0.0340087 86:0.051703598 87:0.046461198 88:0.0337747 89:0.037406798 90:0.019006001 91:0.0039935 92:0.033208501 93:0.074163899 94:0.049217999 95:0.098593101 96:0.0241377 97:0.0076861102 98:0.0254659 99:0.0048187701 100:0.0149719 101:0.0584911 102:0.049295101 103:0.0478587 104:0.017385099 #
-0.083237976903087068647479895844299 1:0.18333299 2:0.0191531 3:0.0101103 4:0.036165699 5:0.0461873 6:0.079610199 7:0.133413 8:0.154348 9:0.216382 10:0.39206901 11:0.48487201 12:0.36852801 13:0.149005 14:0.31091699 15:0.52031302 16:0.67589402 17:0.80013001 18:0.83797598 19:0.68633199 20:0.78935701 21:0.88021398 22:0.76006198 23:0.69381201 24:0.67191499 25:0.61911398 26:0.50769699 27:0.432731 28:0.37750599 29:0.29731899 30:0.217217 31:0.13894901 32:0.124661 33:0.110126 34:0.062504202 35:0.0524811 36:0.124835 37:0.154256 38:0.15745901 39:0.235102 40:0.26189899 41:0.202922 42:0.150728 43:0.225061 44:0.214808 45:0.165851 46:0.206011 47:0.23848701 48:0.207716 49:0.119592 50:0.102075 51:0.085483 52:0.064428501 53:0.065913402 54:0.037590299 55:0.030978199 56:0.0241489 57:0.029020499 58:0.077937998 59:0.101662 60:0.054606099 61:0.076003499 62:0.180647 63:0.217254 64:0.162903 65:0.080421098 66:0.0096284403 67:0.0477174 68:0.057652101 69:0.0171859 70:0.060593601 71:0.057654802 72:0.030756701 74:0.022556899 75:0.025387101 76:0.032120101 77:0.047221702 78:0.019997099 79:0.0180701 80:0.041608401 81:0.039780099 82:0.0281599 83:0.0370203 84:0.038959298 85:0.038311198 86:0.032780599 87:0.022740901 88:0.022978101 89:0.024979699 90:0.022000801 91:0.0163466 92:0.014556 93:0.079731703 94:0.0813905 95:0.070221297 96:0.0225542 97:0.0263135 98:0.0106949 99:0.016064599 100:0.034166399 101:0.064416498 102:0.070610002 103:0.0343525 104:0.0137553 #
-0.037977874490949088681635004149939 2:0.0687548 3:0.0559012 4:0.045818999 5:0.0454611 6:0.198292 7:0.43909299 8:0.54518002 9:0.55403298 10:0.62693101 11:0.473299 12:0.319511 13:0.329721 14:0.376546 15:0.33224201 16:0.34994099 17:0.42767099 18:0.59180403 19:0.68449098 20:0.73561502 21:0.75856298 22:0.692424 23:0.62453997 24:0.61426502 25:0.64288402 26:0.66197002 27:0.631441 28:0.59061903 29:0.50429899 30:0.46126699 31:0.41206801 32:0.41944501 33:0.453403 34:0.425019 35:0.30740899 36:0.23708899 37:0.14844 38:0.177163 39:0.28006399 40:0.34676901 41:0.36202899 42:0.33896399 43:0.430967 44:0.40443999 45:0.234294 46:0.046806101 47:0.14422999 48:0.284504 49:0.25282601 50:0.18288399 51:0.26086301 52:0.37261501 53:0.431005 54:0.321006 55:0.18554901 56:0.126871 57:0.18988501 58:0.245818 59:0.37451199 60:0.389494 61:0.41850999 62:0.43599299 63:0.37092599 64:0.26639599 65:0.18521801 66:0.194851 67:0.246388 68:0.39717001 69:0.262593 70:0.30525699 71:0.28707901 72:0.32013699 73:0.35210499 74:0.26594999 75:0.206874 76:0.223635 77:0.223986 78:0.196338 79:0.412231 80:0.304068 81:0.237664 82:0.198333 83:0.32134101 84:0.25785401 85:0.25881901 86:0.32359701 87:0.29277101 88:0.31684899 89:0.293661 90:0.212865 91:0.22397199 92:0.21706399 93:0.205599 94:0.158574 95:0.27622601 96:0.14332099 97:0.15532701 98:0.14239 99:0.22404 100:0.25510901 101:0.233841 102:0.22396301 103:0.236811 104:0.21705499 #
